tree
version=v4
num_class=3
num_tree_per_iteration=3
label_index=0
max_feature_idx=39
objective=multiclass num_class:3
feature_names=state vegetable season price_norm arrival_norm lag1_ratio lag4_ratio arrival_ratio price_momentum price_vs_avg arrival_momentum modal_price price_lag_1m price_lag_4m rolling_avg_3m price_spread price_position arrival_qty arrival_lag_1m temp_max temp_min rainfall_mm humidity rainfall_deviation month_sin month_cos month_norm_in_veg is_post_monsoon price_volatility_3m price_change_abs price_change_abs_pct prod_price_Tomato prod_price_Tomato_lag1 prod_arrival_Tomato prod_price_Onion prod_price_Onion_lag1 prod_arrival_Onion prod_price_Potato prod_price_Potato_lag1 prod_arrival_Potato
feature_infos=-1:4:5:7:8:9:10:11:12:13:14:17:19:20:21:23:24:25:26:27:18:1:16:3:6:15:0:2 -1:0:1:2 -1:0:3:2:1 [-2.3927056722663678:6.3992188535847587] [-3.3564278659429889:6.2433809763938513] [0.019999999991111111:85.577775876049415] [0.014285714281179139:133.82221924839513] [0.0055821012140462945:675.73114717173155] [-98:8457.7777777777774] [-110.11666666666669:108.8] [-99.44178987859118:67473.114754098351] [0.45000000000000001:216.33000000000001] [0.45000000000000001:216.33000000000001] [0.45000000000000001:216.33000000000001] [3.4333333333333336:191.44000000000003] [0:71.300000000000011] [0:1.003976141145176] [0.050000000000000003:1295770.48] [0.050000000000000003:1295770.48] [-0.25:42.880000000000003] [-8.4900000000000002:29.449999999999999] [0:1463.5999999999999] [34.259999999999998:99.650000000000006] [-340.85000000000002:381.97000000000003] [-1:1] [-1:1] [-1.5587570474380206:1.7084912059349435] [0:1] [0:107.2272395429445] [0:179.58000000000001] [0:4899.9998911111134] [5.4100000000000001:59.810000000000002] [5.4100000000000001:59.810000000000002] [21691:215429] [6.1799999999999997:38.619999999999997] [6.1799999999999997:38.619999999999997] [344414.90000000002:1178046] [6.25:21.690000000000001] [6.25:21.690000000000001] [522741.91999999998:1295770.48]
tree_sizes=971 990 871 983 1007 886 779 1005 865 971 987 852 1006 999 903 990 1008 883 988 993 891 1007 1003 868 885 993 1009 992 1008 1010 989 1006 883 888 999 891 989 999 841 983 1009 881 881 1014 842 978 986 882 873 997 867 977 987 995 991 1009 888 871 1006 886 999 1021 874 885 1009 987 991 1000 894 984 1001 891 999 990 859 998 896 887 1009 902 987 1004 985 888 989 994 885 986 907 1009 977 1004 997 990 1006 906 994 905 880 885 1006 1000 884 1015 883 989 1001 891 990 1014 888 988 1002 887 989 1018 986 990 1009 890 1013 1011 999 1011 1018 891 1009 1014 894 992 1002 890 971 1000 892 998 1015 978 1017 1012 987 993 996 863 896 1004 866 992 997 893 995 999 867 1017 1006 759 1022 1011 999 1012 1009 867 995 1009 992 1012 889 892 1007 982 896 918 1010 871 998 1002 888 984 981 889 1009 1010 891 1008 1002 785 984 1008 877 1004 902 781 897 1012 989 1005 1023 898 1016 1022 895 1008 1010 891 1010 908 892 985 1002 681 894 1013 886 1014 1003 885 999 899 908 917 997 991 976 1001 892 973 1020 996 998 895 891 997 1000 990 999 1000 1002 1016 896 974 995 988 971 995 983 990 1023 1009 1014 896 979 987 896 1019 1002 994 990 906 995 1016 891 993 1011 909 997 681 908 979 1005 872 879 911 907 881 1000 994 876 1002 893 981 982 891 984 1023 998 1006 888 955 1000 893 891 921 900 959 1018 1012 889 998 1022 973 898 1019 1013 918 921 997 895 1024 1008 893 682 992 1003 1016 1000 984 1003 891 813 999 997 914 997 785 1018 973 778 1022 1003 765 893 881 1000 914 868 909 1012 1014 994 887 1001 907 1011 1014 1013 886 1011 992 909 1004 891 892 997 871 784 879 864 886 1012 891 778 1005 982 802 1023 911 779 907 1000 764 918 916 800 888 914 891 1001 904 892 1010 897 1021 1013 707 1012 904 684 1003 1021 896 977 979 862 996 975 872 961 994 996 987 977 896 886 992 997 807 992 997 989 990 1026 786 988 795 791 1011 1017 975 1022 797 1003 1009 887 1026 898 890 975 1021 788 1023 886 891 999 907 888 906 1013 1000 1002 1016 760 1010 1011 1009 921 998 660 998 1012 789 707 921 896 983 918 995 910 919 1006 894 886 1007 707 919 995 1019 892 889 992 1024 889 1019 1014 917 891 988 989 1000 686 978 1017 1014 892 814 1003 906 992 682 1000 993 1019 894 898 1012 1015 678 1008 881 813 973 996 806 890 880 806 1020 882 711 989 878 893 684 685 906 1022 1018 686 684 885 687 918 916 886 1018 1020 1025 1002 766 1024 1023 658 1022 1011 786 1021 1001 897 1018 1026 902 1026 912 995 994 993 1024 1022 1021 983 1009 1016 890 995 1005 1002 990 998 1020 993 1022 997 1001 1010 711 976 1025 665 1022 1020 707 710 863 582 686 869 579 684 869 896 766 1019 581 767 1004 581 1024 602 1001 990 576 1016 1011 600 984 996 603 1021 987 1017 987 1005 983 1024 1007 993 993 981 1018 996 1011 1001 1021 788 1005 975 1002 765 801 781 919 898 783 773 878 785 1002 917 1024 767 895 915 915 885 899 690 917 914 910 987 790 686 995 791 681 909 891 999 919 889 1022 1013 917 1023 1013 885 1020 979 1031 1004 993 974 893 767 983 662 770 1006 671 890 998 1010 686 996 1023 765 1022 998 784 1021 1003 917 1030 978 995 1026 915 1015 1020 1006 1018 991 995 881 991 915 889 784 892 890 784 904 898 995 997 895 1020 861 1001 766 1016 707 997 919 682 1013 1015 791 995 920 711 1002 671 889 990 891 1019 1004 887 787 998 906 904 1005 1010 1004 1023 668 679 808 670 996 921 890 891 999 580 797 998 647 894 996 1009 892 914 1011 978 1001 993 995 1026 924 817 894 895 791 910 1019 911 776 973 854 911 1000 895 1025 1000 974 906 999 907 893 1021 878 891 914 1003 890 916 882 918 920 999 890 916 882 912 1021 793 1027 893 1014 1017 983 995 871 1018 1003 1013 987 889 1001 895 978 1002 792 996 1017 1018 1026 1002 813 998 999 1018 1023 786 994 997 977 985 1023 812 889 1014 790 685 1019 1024 986 998 688 890 968 762 847 883 679 1016 812 982 893 789 709 998 645 1017 1004 684 1014 1005 710 1018 1016 686 990 888 686 1021 1015 1021 958 1018 906 963 898 776 979 1026 1009 959 1014 1019 969 891 1017 1022 910 981 969 1002 993 1023 890 1025 976 789 998 893 995 1020 979 899 885 903 871 679 902 685 681 1027 1001 1015 887 1021 663 1023 993 702 1017 1007 581 1001 699 703 1022 702 602 1002 1014 689 816 682 868 814 683 798 789 708 873 685 683 998 812 686 810 996 972 778 996 969 780 992 948 777 991 994 775 889 767 1013 1000 1020 895 985 815 891 1013 1019 790 903 1019 874 1000 890 977 1014 1013 918 995 1020 1002 686 1022 1025 1021 989 893 915 1021 999 875 1023 1014 851 1002 1002 709 1021 706 792 1019 1008 852 1020 702 1015 904 789 1011 914 688 893 909 689 966 894 711 1018 875 794 810 1021 672 785 1024 782 811 1021 876 789 915 781 791 1011 783 1016 1012 1001 788 1008 919 1023 1004 922 890 1023 1023 919 1018 1029

Tree=0
num_leaves=8
num_cat=1
split_feature=25 1 32 3 37 5 18
split_gain=263.941 80.1163 91.61 42.0786 28.3421 17.3181 13.1696
threshold=0.6830127018922193 0 15.375000000000002 -0.37429279504043728 7.0850000000000009 0.79323730934316294 207.48000000000002
decision_type=2 1 2 2 2 2 2
left_child=1 2 -1 5 -3 -2 -5
right_child=3 4 -4 6 -6 -7 -8
leaf_value=-1.2692791516650133 -1.2420314752212003 -1.2564185223394844 -1.2372049323830099 -1.2521159299551536 -1.2764913706331915 -1.263563309227661 -1.2296920857285403
leaf_weight=93.599354773759842 23.125978469848633 28.968331038951874 54.650338441133499 16.188185065984726 320.84252578020096 34.445536643266678 88.243864804506302
leaf_count=242 59 72 142 39 761 83 232
internal_value=-1.26236 -1.26956 -1.25734 -1.24033 -1.27477 -1.25468 -1.23281
internal_weight=660.064 498.061 148.25 162.004 349.811 57.5715 104.432
internal_count=1630 1217 384 413 833 142 271
cat_boundaries=0 1
cat_threshold=4
is_linear=0
shrinkage=1


Tree=1
num_leaves=8
num_cat=1
split_feature=1 24 25 31 31 11 22
split_gain=81.9505 71.7446 32.3524 22.1846 33.0166 15.8335 10.443
threshold=0 -0.24999999999999994 0.6830127018922193 11.500000000000002 7.7800000000000002 15.360000000000001 93.515000000000015
decision_type=1 2 2 2 2 2 2
left_child=1 2 -1 4 -2 -3 -5
right_child=3 5 -4 6 -6 -7 -8
leaf_value=-0.90211258434151864 -0.9352659560476051 -0.93231600838070106 -0.92721200671877446 -0.93659329592145213 -0.91871692902398483 -0.91926695495986188 -0.92864201628303866
leaf_weight=116.73690542578697 74.37849885225296 78.686133623123169 23.548404812812805 171.44387596845627 128.79828581213951 66.481166511774063 118.60355120897293
leaf_count=216 164 171 50 380 261 135 253
internal_value=-0.924952 -0.91647 -0.906371 -0.929894 -0.924771 -0.926278 -0.933425
internal_weight=778.677 285.453 140.285 493.224 203.177 145.167 290.047
internal_count=1630 572 266 1058 425 306 633
cat_boundaries=0 1
cat_threshold=2
is_linear=0
shrinkage=1


Tree=2
num_leaves=7
num_cat=1
split_feature=25 32 1 25 8 23
split_gain=105.893 56.7838 78.3664 50.001 12.576 4.08186
threshold=0.6830127018922193 15.375000000000002 0 -0.68301270189221952 -34.359793414335606 -21.474999999999998
decision_type=2 2 1 2 2 2
left_child=1 3 -3 -1 -2 -6
right_child=4 2 -4 -5 5 -7
leaf_value=-1.1175446575138739 -1.1340772834872339 -1.1245271561138908 -1.1505617554043095 -1.1340988249044526 -1.1422723040405558 -1.1541952168512795
leaf_weight=109.23767799139023 13.589376270771025 67.293545454740524 136.4164292216301 221.74203190207481 16.986720204353333 143.34178581833839
leaf_count=257 33 155 301 504 39 341
internal_value=-1.13802 -1.13362 -1.14187 -1.12852 -1.1515 -1.15306
internal_weight=708.608 534.69 203.71 330.98 173.918 160.329
internal_count=1630 1217 456 761 413 380
cat_boundaries=0 1
cat_threshold=1
is_linear=0
shrinkage=1


Tree=3
num_leaves=8
num_cat=0
split_feature=26 26 6 3 30 12 18
split_gain=255.827 68.6726 68.0501 52.1124 22.4174 20.7619 12.8674
threshold=1.1119805427578882 -0.96426143418453092 3.2855870843418042 -0.38742002457699215 24.255593740559444 10.245000000000003 207.48000000000002
decision_type=2 2 2 2 2 2 2
left_child=1 5 -3 4 -2 -1 -5
right_child=3 2 -4 6 -6 -7 -8
leaf_value=-0.0081812386699595362 -0.010961122406014294 -0.011700456185457271 0.02628686206557641 0.010420922297961524 0.019596717519604848 0.012354611722363693 0.033648142006357289
leaf_weight=23.260370075702667 19.865279614925385 391.56758478283882 17.810980141162872 14.602870106697081 15.0014271736145 85.683341264724731 92.30283135175705
leaf_count=58 47 952 47 35 39 212 240
internal_value=0.000365684 -0.00614527 -0.00990366 0.0239937 0.00226503 0.00781146 0.0308169
internal_weight=660.095 518.322 409.379 141.772 34.8667 108.944 106.906
internal_count=1630 1269 999 361 86 270 275
is_linear=0
shrinkage=0.02


Tree=4
num_leaves=8
num_cat=2
split_feature=1 33 34 1 37 24 23
split_gain=78.8321 79.8483 26.7941 23.7455 15.6141 15.4823 10.9449
threshold=0 47490.500000000007 13.900000000000002 1 19.000000000000004 1.0000000180025095e-35 -3.4049999999999998
decision_type=1 2 2 1 2 2 2
left_child=1 6 3 -2 -4 -3 -1
right_child=2 5 4 -5 -6 -7 -8
leaf_value=0.0027420574144455851 0.0050994647232148749 0.02062203547179841 -0.013456175071398067 -0.0069761232524026967 -0.0022503960600765553 0.0048438371236439424 -0.0089250609512063813
leaf_weight=54.820178747177124 136.95370057225227 126.10085219144821 158.33754959702492 120.36592221260071 76.815881818532944 34.895004898309708 70.303379237651825
leaf_count=113 279 234 355 261 163 71 154
internal_value=-0.000178123 0.00812478 -0.00503556 -0.000520787 -0.00988768 0.0173649 -0.00377198
internal_weight=778.592 286.119 492.473 257.32 235.153 160.996 125.124
internal_count=1630 572 1058 540 518 305 267
cat_boundaries=0 1 2
cat_threshold=2 1
is_linear=0
shrinkage=0.02


Tree=5
num_leaves=7
num_cat=0
split_feature=25 32 25 8 26 22
split_gain=102.236 54.3882 47.4286 12.3715 12.1063 6.63324
threshold=0.6830127018922193 15.375000000000002 -0.68301270189221952 -34.359793414335606 1.1077113911118002 95.785000000000011
decision_type=2 2 2 2 2 2
left_child=1 2 -1 -2 -3 -5
right_child=3 4 -4 5 -6 -7
leaf_value=0.019760259554528002 0.0038271795270100862 -0.0017124100946278047 0.0036948044338522661 -0.01681863546476069 -0.015089361262979099 -0.0046418403956588342
leaf_weight=110.35678422451019 13.581535816192625 172.4244013428688 222.23467901349068 133.49111732840538 30.877303302288055 25.543434798717499
leaf_count=257 33 386 504 320 70 60
internal_value=-0.000130999 0.00417168 0.0091416 -0.0134409 -0.00392 -0.0150069
internal_weight=708.509 535.893 332.591 172.616 203.302 159.035
internal_count=1630 1217 761 413 456 380
is_linear=0
shrinkage=0.02


Tree=6
num_leaves=6
num_cat=2
split_feature=2 6 31 34 1
split_gain=184.09 70.3237 35.0895 38.8363 25.881
threshold=0 3.2855870843418042 7.7600000000000007 17.765000000000004 1
decision_type=1 2 2 2 1
left_child=2 4 -1 -4 -2
right_child=1 -3 3 -5 -6
leaf_value=-0.011665686517686878 -0.0016867083384679064 0.028873584135019531 0.0071272040939811447 0.023178335660313385 -0.01359660185121302
leaf_weight=19.018491208553314 103.13036298751831 17.175976574420929 124.48185423016548 124.64251333475113 271.56600880622864
leaf_count=48 264 45 307 310 656
internal_value=0.000360137 -0.0082779 0.0128207 0.0153184 -0.0103715
internal_weight=660.015 391.872 268.143 249.124 374.696
internal_count=1630 965 665 617 920
cat_boundaries=0 1 2
cat_threshold=10 4
is_linear=0
shrinkage=0.02


Tree=7
num_leaves=8
num_cat=2
split_feature=1 24 25 34 1 11 37
split_gain=76.2986 65.8916 29.5875 26.1256 23.0343 15.4447 15.1362
threshold=0 -0.24999999999999994 0.6830127018922193 13.900000000000002 1 15.360000000000001 19.000000000000004
decision_type=1 2 2 2 1 2 2
left_child=1 2 -1 4 -2 -3 -5
right_child=3 5 -4 6 -6 -7 -8
leaf_value=0.02161989403094065 0.0050231647183692218 -0.0074200568369199174 -0.0023576921665447331 -0.013284893011677639 -0.0068730622102366893 0.0054733729089712115 -0.0022409413763383834
leaf_weight=118.09133660793304 137.10304349660873 78.504094928503036 23.512571096420288 157.76178604364395 120.14006841182709 66.507964909076691 76.802167683839798
leaf_count=216 279 171 50 355 261 135 163
internal_value=-0.000174152 0.00798236 0.0175915 -0.00496094 -0.00050431 -0.00144461 -0.00976061
internal_weight=778.423 286.616 141.604 491.807 257.243 145.012 234.564
internal_count=1630 572 266 1058 540 306 518
cat_boundaries=0 1 2
cat_threshold=2 1
is_linear=0
shrinkage=0.02


Tree=8
num_leaves=7
num_cat=0
split_feature=26 19 8 32 14 22
split_gain=97.956 52.3647 36.7814 34.4114 17.2361 5.1988
threshold=1.1077113911118002 35.675000000000004 -34.359793414335606 7.7800000000000002 15.69 96.14500000000001
decision_type=2 2 2 2 2 2
left_child=1 3 -2 -1 -3 -4
right_child=2 4 5 -5 -6 -7
leaf_value=0.019565902984352932 0.016857977109735498 0.024907661086868337 -0.017277710839690059 -0.00019172851915650129 0.0037259339613335712 -0.0059807855430160607
leaf_weight=36.42151153087616 13.2492698431015 55.441024839878082 137.28546360135078 417.39300680160522 23.684179037809372 24.886626780033112
leaf_count=85 33 132 327 941 54 58
internal_value=-0.000130221 0.00412712 -0.0130213 0.0014509 0.0189389 -0.015699
internal_weight=708.361 532.94 175.421 453.815 79.1252 162.172
internal_count=1630 1212 418 1026 186 385
is_linear=0
shrinkage=0.02


Tree=9
num_leaves=8
num_cat=0
split_feature=26 26 6 29 32 12 29
split_gain=234.519 65.3323 64.0336 23.8259 23.7398 20.1043 7.84269
threshold=1.1119805427578882 -0.96426143418453092 3.2855870843418042 4.8600000000000021 14.630000000000001 10.245000000000003 15.775
decision_type=2 2 2 2 2 2 2
left_child=1 5 -3 4 -2 -1 -5
right_child=3 2 -4 6 -6 -7 -8
leaf_value=-0.0081816978650720816 0.0038906410352197063 -0.011475670676262425 0.024993409274403983 0.035595335620841474 0.025937429120661177 0.012003760865128384 0.013762406839698111
leaf_weight=23.259655505418777 43.452768594026566 386.70749542117119 18.25706273317337 51.494111955165863 36.912775576114655 86.391073405742645 13.444841176271437
leaf_count=58 105 952 47 132 91 212 33
internal_value=0.000351718 -0.00598129 -0.00969221 0.0226255 0.0145223 0.0075625 0.0317707
internal_weight=659.92 514.615 404.965 145.304 80.3655 109.651 64.939
internal_count=1630 1269 999 361 196 270 165
is_linear=0
shrinkage=0.02


Tree=10
num_leaves=8
num_cat=0
split_feature=30 33 28 22 33 3 28
split_gain=54.1429 40.7181 21.2268 11.7185 10.5504 5.93591 4.98954
threshold=17.753970592720457 124309.00000000001 2.8958904415060798 96.250000000000014 73132.000000000015 -0.14441765061159006 2.5990703404156004
decision_type=2 2 2 2 2 2 2
left_child=1 2 -1 4 -2 -5 -3
right_child=3 6 -4 5 -6 -7 -8
leaf_value=0.0054117102292646603 -0.0097956865968095528 0.024794821848530626 -0.0038387476440988493 0.011235577870915822 0.0017581512108215871 -0.0030356500672534454 0.0085101128906012961
leaf_weight=262.75113317370415 230.27520996332169 35.857543587684631 155.76722419261932 17.322710484266281 34.304382860660553 26.184484630823135 15.724568217992781
leaf_count=532 509 64 333 34 71 56 31
internal_value=-0.000170838 0.00408099 0.00194314 -0.0066753 -0.0082582 0.00267087 0.0205201
internal_weight=778.187 470.1 418.518 308.087 264.58 43.5072 51.5821
internal_count=1630 960 865 670 580 90 95
is_linear=0
shrinkage=0.02


Tree=11
num_leaves=7
num_cat=0
split_feature=26 19 14 28 14 3
split_gain=94.7032 50.1711 33.7623 22.4224 16.4688 3.00985
threshold=1.1077113911118002 35.675000000000004 8.5000000000000018 15.174516321767108 15.69 -0.46733603047351874
decision_type=2 2 2 2 2 2
left_child=1 2 -1 5 -3 -2
right_child=3 4 -4 -5 -6 -7
leaf_value=0.022487596354596875 -0.0075056766382089355 0.024266075320954959 0 0.010442343324432802 0.0036061713507035153 -0.016351641901975356
leaf_weight=26.510662317276001 28.423025578260422 56.013874620199203 427.68782851099968 13.329742223024367 23.75544285774231 132.36976659297943
leaf_count=63 65 132 963 33 54 320
internal_value=-0.000126073 0.00404112 0.00141443 -0.0128628 0.0184745 -0.0149608
internal_weight=708.09 533.968 454.198 174.123 79.7693 160.793
internal_count=1630 1212 1026 418 186 385
is_linear=0
shrinkage=0.02


Tree=12
num_leaves=8
num_cat=1
split_feature=25 1 32 3 33 35 23
split_gain=223.476 73.847 83.1538 34.3611 26.7698 15.9853 11.3875
threshold=0.6830127018922193 0 15.375000000000002 -0.37429279504043728 25836.500000000004 17.765000000000004 -21.474999999999998
decision_type=2 1 2 2 2 2 2
left_child=1 2 -1 5 -3 -2 -5
right_child=3 4 -4 6 -6 -7 -8
leaf_value=-0.0063775067454109324 0.020485893299215744 0.0061682638352737055 0.023962469306397165 0.0066740383479715016 -0.013322605586471208 -0.00045103822226054413 0.028945154313845776
leaf_weight=92.890656739473343 20.619498133659363 29.081847012042999 56.213238567113876 12.999614506959913 312.13992869853973 38.338592141866684 97.396580398082733
leaf_count=242 51 72 142 31 761 91 240
internal_value=0.000345589 -0.00648691 0.00516047 0.0200307 -0.011606 0.00713911 0.026577
internal_weight=659.68 490.326 149.104 169.354 341.222 58.9581 110.396
internal_count=1630 1217 384 413 833 142 271
cat_boundaries=0 1
cat_threshold=4
is_linear=0
shrinkage=0.02


Tree=13
num_leaves=8
num_cat=2
split_feature=1 33 33 26 1 22 20
split_gain=72.6057 72.9673 23.5806 23.7039 17.1005 14.4212 13.6113
threshold=0 47490.500000000007 124309.00000000001 -0.66842971407853768 1 75.550000000000011 19.615000000000006
decision_type=1 2 2 2 1 2 2
left_child=1 6 3 -2 -4 -3 -1
right_child=2 5 4 -5 -6 -7 -8
leaf_value=-0.0082586091870243735 0.0015042850108477797 -0.00099378051480998142 0.017686232326606779 -0.0089734571324134732 -0.0062548291639959418 0.018468364696740295 0.0054505069711366415
leaf_weight=83.592349052429199 113.8371921479702 15.667660921812056 28.362906605005264 330.98364242911339 17.533728301525116 146.76760518550873 41.229877352714539
leaf_count=183 237 33 53 730 38 272 84
internal_value=-0.000166992 0.007774 -0.00484849 -0.00627491 0.00845206 0.0165411 -0.00363697
internal_weight=777.975 287.257 490.717 444.821 45.8966 162.435 124.822
internal_count=1630 572 1058 967 91 305 267
cat_boundaries=0 1 2
cat_threshold=2 1
is_linear=0
shrinkage=0.02


Tree=14
num_leaves=7
num_cat=1
split_feature=25 3 19 1 12 22
split_gain=93.8505 56.2986 36.8 16.4581 12.1012 7.94601
threshold=0.6830127018922193 0.76289669352831091 35.445000000000007 0 10.370000000000003 95.785000000000011
decision_type=2 2 2 1 2 2
left_child=1 2 -1 -3 -2 -6
right_child=4 3 -4 -5 5 -7
leaf_value=0.0047023357334449664 0.0040222789892026527 0.0040452018535756069 0.020453652753958704 -0.011893700546241184 -0.016609216340107581 -0.0035049567151284465
leaf_weight=340.86262312531471 13.554719656705855 33.367236405611038 71.299895316362381 92.956232607364655 130.48400735855103 25.310558170080185
leaf_count=770 34 74 166 207 319 60
internal_value=-0.000124564 0.0039505 0.00753691 -0.00760822 -0.0130354 -0.0146151
internal_weight=707.835 538.486 412.163 126.323 169.349 155.795
internal_count=1630 1217 936 281 413 379
cat_boundaries=0 1
cat_threshold=1
is_linear=0
shrinkage=0.02


Tree=15
num_leaves=8
num_cat=0
split_feature=26 26 8 31 21 29 18
split_gain=207.966 47.9842 54.3612 25.5462 20.8407 19.737 9.68415
threshold=1.1119805427578882 -0.96426143418453092 57.068451933202944 12.120000000000003 9.2500000000000018 3.7549999999999994 231.96000000000001
decision_type=2 2 2 2 2 2 2
left_child=1 5 -3 4 -2 -1 -5
right_child=3 2 -4 6 -6 -7 -8
leaf_value=-0.0011483244829124449 0.019031350457846822 -0.011943786331419957 0.016252280564267724 0.0084910602872172829 -0.0067821802985088761 0.016032983877127836 0.028190254295981973
leaf_weight=77.331210434436798 24.381793111562729 373.80342531204224 27.494973540306091 15.412349581718443 21.562550961971283 37.963538020849228 87.391610354185104
leaf_count=187 60 931 70 36 51 93 212
internal_value=-0.000628496 -0.00665169 -0.00991612 0.020034 0.00693045 0.00460069 0.0255508
internal_weight=665.341 516.593 401.298 148.748 45.9443 115.295 102.804
internal_count=1640 1281 1001 359 111 280 248
is_linear=0
shrinkage=0.02


Tree=16
num_leaves=8
num_cat=1
split_feature=1 33 30 31 12 5 39
split_gain=69.6543 45.8517 39.0992 11.9808 17.2688 3.25037 1.95272
threshold=0 124309.00000000001 10.538563283443812 15.890000000000002 34.925000000000004 1.1499333844588331 603181.65500000014
decision_type=1 2 2 2 2 2 2
left_child=3 2 -2 4 -1 -3 -5
right_child=1 5 -4 6 -6 -7 -8
leaf_value=-0.0091169252365758055 0.0076471908650214216 0.024322618878171172 -0.0035718115191624932 -0.0089248375377105078 0.0056732769577232493 0.010015399817321356 -0.018998024483772795
leaf_weight=131.77628344297409 259.06078979372978 41.273770689964294 234.08978840708733 22.39241960644722 38.949736386537552 15.607188701629637 41.619244009256363
leaf_count=292 517 73 501 50 80 30 97
internal_value=0.000429987 0.00433306 0.00230862 -0.00863271 -0.00565815 0.0210403 -0.0160029
internal_weight=784.769 550.032 493.151 234.738 170.726 56.881 64.0117
internal_count=1640 1121 1018 519 372 103 147
cat_boundaries=0 1
cat_threshold=4
is_linear=0
shrinkage=0.02


Tree=17
num_leaves=7
num_cat=0
split_feature=26 19 8 14 12 3
split_gain=90.6799 46.8181 38.1516 27.8962 10.384 2.54624
threshold=1.1077113911118002 34.615000000000002 -32.967927386021096 8.7550000000000008 16.990000000000006 -0.50806236422332529
decision_type=2 2 2 2 2 2
left_child=1 3 -2 -1 -3 -4
right_child=2 4 5 -5 -6 -7
leaf_value=0.020830418848360219 0.016420288271897957 0.019189376742806186 -0.006483668172490689 -6.3588466609877949e-05 0.0027499822368527121 -0.01641880079480337
leaf_weight=25.185126036405563 14.730533391237257 83.153414994478226 18.817111939191818 412.30528557300568 21.464331686496735 138.51748925447464
leaf_count=59 36 192 43 924 48 338
internal_value=9.93059e-05 0.00413245 -0.0124515 0.00120579 0.0160252 -0.0153896
internal_weight=714.173 542.108 172.065 437.49 104.618 157.335
internal_count=1640 1223 417 983 240 381
is_linear=0
shrinkage=0.02


Tree=18
num_leaves=8
num_cat=0
split_feature=26 3 26 8 29 5 18
split_gain=199.862 51.2288 46.8281 52.8443 19.0016 17.81 15.532
threshold=1.1119805427578882 -0.14441765061159006 -0.96426143418453092 57.068451933202944 3.7549999999999994 0.77798835233301877 207.48000000000002
decision_type=2 2 2 2 2 2 2
left_child=2 5 4 -4 -1 -2 -3
right_child=1 6 3 -5 -6 -7 -8
leaf_value=-0.0011249871741868763 0.017460247708555945 0.0071139457897445389 -0.011828532705179941 0.01587994015921794 0.015694549141733297 -0.0062210460298835965 0.030994954228668579
leaf_weight=77.267118602991104 18.221323877573013 15.364788591861723 371.20577323436737 27.718443661928177 38.243349194526672 31.673155575990677 84.839917659759521
leaf_count=187 44 35 931 70 93 74 206
internal_value=-0.000617229 0.0195183 -0.00656448 -0.00980871 0.00453089 0.00257421 0.0276419
internal_weight=664.534 150.099 514.435 398.924 115.51 49.8945 100.205
internal_count=1640 359 1281 1001 280 118 241
is_linear=0
shrinkage=0.02


Tree=19
num_leaves=8
num_cat=0
split_feature=30 8 22 32 35 6 10
split_gain=53.7827 26.6773 19.4061 17.6556 12.2224 8.74613 4.94348
threshold=10.240862560444652 -11.493186101060285 79.13000000000001 7.7600000000000007 35.605000000000011 0.78009936977623628 -9.5840860908092491
decision_type=2 2 2 2 2 2 2
left_child=1 5 -3 6 -5 -1 -2
right_child=3 2 -4 4 -6 -7 -8
leaf_value=0.00079138992373010422 -0.0031567451383787961 -0.0029648481075710427 0.011399794946286814 -0.00151730842747879 -0.015212639760325615 -0.013928232261480831 -0.018035852303083261
leaf_weight=37.382324308156967 14.739937633275984 42.709914565086365 232.11158484220505 365.79496747255325 26.443919211626053 24.711341500282288 40.710283815860748
leaf_count=78 32 91 451 776 61 56 95
internal_value=0.000421388 0.00644819 0.00912597 -0.00410045 -0.00253847 -0.00516237 -0.0145023
internal_weight=784.604 336.915 274.821 447.689 392.239 62.0937 55.4502
internal_count=1640 676 542 964 837 134 127
is_linear=0
shrinkage=0.02


Tree=20
num_leaves=7
num_cat=0
split_feature=25 32 25 3 12 7
split_gain=96.1233 51.7895 33.3502 18.4299 9.26918 2.36465
threshold=0.6830127018922193 15.375000000000002 -0.68301270189221952 0.33427757685946874 11.575000000000001 1.6807994192675375
decision_type=2 2 2 2 2 2
left_child=1 2 -1 -3 -2 -6
right_child=4 3 -4 -5 5 -7
leaf_value=0.017546005604788913 0.0014468152248814719 0.0025517591649116479 0.0043137240752608658 -0.0093886788010651683 -0.015378588586930893 -0.0042156365201887706
leaf_weight=115.75766950845718 14.317691117525099 94.113065868616104 229.74725857377052 108.37097334861755 138.89966961741447 12.641185760498045
leaf_count=262 35 206 517 248 341 31
internal_value=9.77009e-05 0.00415443 0.0088513 -0.00381927 -0.0131358 -0.0145796
internal_weight=713.848 547.989 345.505 202.484 165.859 151.541
internal_count=1640 1233 779 454 407 372
is_linear=0
shrinkage=0.02


Tree=21
num_leaves=8
num_cat=1
split_feature=26 3 26 1 29 5 17
split_gain=192.057 48.8176 45.5989 50.9056 18.2917 17.194 12.3571
threshold=1.1119805427578882 -0.14441765061159006 -0.96426143418453092 0 3.7549999999999994 0.77798835233301877 651.75500000000011
decision_type=2 2 2 1 2 2 2
left_child=2 5 4 -4 -1 -2 -3
right_child=1 6 3 -5 -6 -7 -8
leaf_value=-0.0011117371890037651 0.017024735689915568 0.010945805014563673 0.0023166509300376675 -0.01391334613879903 0.015352053341199479 -0.0061901990679208265 0.030543479192097277
leaf_weight=77.227978855371475 18.382654875516891 20.919125437736511 102.5989845097065 293.86787563562393 38.524552643299103 31.63423103094101 80.436222970485687
leaf_count=187 44 48 268 733 93 74 193
internal_value=-0.000604837 0.0190228 -0.0064761 -0.00969765 0.00445047 0.00247625 0.0268855
internal_weight=663.592 151.372 512.219 396.467 115.753 50.0169 101.355
internal_count=1640 359 1281 1001 280 118 241
cat_boundaries=0 1
cat_threshold=4
is_linear=0
shrinkage=0.02


Tree=22
num_leaves=8
num_cat=2
split_feature=1 33 0 31 12 5 39
split_gain=66.3481 43.5578 25.7863 11.7766 16.7507 3.06149 1.90509
threshold=0 124309.00000000001 1 15.890000000000002 34.925000000000004 1.1499333844588331 603181.65500000014
decision_type=1 2 9 2 2 2 2
left_child=3 2 -2 4 -1 -3 -5
right_child=1 5 -4 6 -6 -7 -8
leaf_value=-0.0089268615234823906 0.0095714303060949364 0.023631137328086624 -0.00054561248825502322 -0.0087781829125661223 0.0056426873990341013 0.0097300856053275236 -0.018755580109020616
leaf_weight=131.22650811076164 126.39821973443031 41.529611855745316 367.04096445441246 22.314552038908005 38.965394139289856 15.660630971193312 41.327257215976715
leaf_count=292 249 73 769 50 80 30 97
internal_value=0.000412159 0.00421323 0.00223612 -0.00845598 -0.0055063 0.0204509 -0.0157836
internal_weight=784.463 550.629 493.439 233.834 170.192 57.1902 63.6418
internal_count=1640 1121 1018 519 372 103 147
cat_boundaries=0 1 2
cat_threshold=4 8919233
is_linear=0
shrinkage=0.02


Tree=23
num_leaves=7
num_cat=0
split_feature=19 35 8 3 5 24
split_gain=74.8724 42.5898 36.7508 10.0145 10.637 2.2567
threshold=34.615000000000002 32.145000000000003 -25.016498020237574 0.95140480594447718 1.1116693969413336 -0.6830127018922193
decision_type=2 2 2 2 2 2
left_child=1 2 -1 4 -2 -3
right_child=3 5 -4 -5 -6 -7
leaf_value=0.012948353293596646 0.010461370160931205 -0.0081635070054549268 -0.0025128535567800082 0 0.025262421483178744 -0.017587107300048036
leaf_weight=69.126462370157242 49.302362740039825 24.195859014987946 450.36856845021248 14.362404763698576 42.562799543142319 63.54552036523819
leaf_count=162 110 56 1020 31 100 161
internal_value=9.56391e-05 -0.00261372 -0.000394568 0.0154378 0.0178177 -0.0153397
internal_weight=713.464 607.236 519.495 106.228 91.8652 87.7414
internal_count=1640 1399 1182 241 210 217
is_linear=0
shrinkage=0.02


Tree=24
num_leaves=7
num_cat=0
split_feature=26 26 8 35 39 12
split_gain=185.235 44.575 50.8574 22.7702 24.5913 13.3649
threshold=1.1119805427578882 -0.96426143418453092 57.068451933202944 35.605000000000011 905936.50000000012 11.855000000000002
decision_type=2 2 2 2 2 2
left_child=1 5 -3 4 -2 -1
right_child=3 2 -4 -5 -6 -7
leaf_value=-0.0069108524365425594 0.018966432158329286 -0.011615003200547449 0.015479245661008752 0.033299823139580804 -0.0018234634597408936 0.0083029419366300507
leaf_weight=28.785675317049026 90.898940771818161 366.29611885547638 27.953667879104614 32.983994841575623 28.58249369263649 87.156439006328583
leaf_count=70 210 931 70 80 69 210
internal_value=-0.000594951 -0.0063972 -0.00960026 0.0185877 0.0139626 0.00438779
internal_weight=662.657 510.192 394.25 152.465 119.481 115.942
internal_count=1640 1281 1001 359 279 280
is_linear=0
shrinkage=0.02


Tree=25
num_leaves=8
num_cat=0
split_feature=30 8 32 21 35 6 21
split_gain=50.7289 25.3766 16.9878 15.7822 11.7071 6.19777 4.89391
threshold=10.240862560444652 -19.119246854986084 7.7600000000000007 5.4500000000000011 35.605000000000011 0.59630316152500873 141.10000000000005
decision_type=2 2 2 2 2 2 2
left_child=1 5 6 -3 -4 -1 -2
right_child=2 3 4 -5 -6 -7 -8
leaf_value=0.00093053268247846835 -0.017767152818175768 -0.0021341271738366083 -0.0014680623947955264 0.010216113947277883 -0.014922900016424028 -0.014607570905274949 -0.0029616640573899822
leaf_weight=14.869116336107252 40.378106772899628 47.173170059919357 365.34230154752731 251.96138772368431 26.216529816389084 23.568467199802399 14.6720734834671
leaf_count=31 95 100 776 491 61 54 32
internal_value=0.000405875 0.00624834 -0.00399606 0.00823405 -0.00246559 -0.00860081 -0.0142386
internal_weight=784.181 337.572 446.609 299.135 391.559 38.4376 55.0502
internal_count=1640 676 964 591 837 85 127
is_linear=0
shrinkage=0.02


Tree=26
num_leaves=8
num_cat=1
split_feature=25 32 1 26 3 33 32
split_gain=90.7007 49.0949 65.4841 39.1474 7.34447 2.83679 0.621965
threshold=0.6830127018922193 15.375000000000002 0 -0.96426143418453092 -0.57818115884673116 39831.000000000007 13.765000000000002
decision_type=2 2 1 2 2 2 2
left_child=1 3 -3 -1 5 -2 -6
right_child=4 2 -4 -5 6 -7 -8
leaf_value=-0.0035841383314106131 -0.0082355509354774224 0.011473759346529036 -0.012098838901310674 0.012203426706461471 -0.01157897892174801 0.0023760044573506588 -0.017274537844967516
leaf_weight=79.730213701725006 26.234606832265854 70.674430519342422 131.47590512037277 267.7450555562973 50.42905867099762 12.627757400274275 74.218132346868515
leaf_count=180 61 158 296 599 125 30 191
internal_value=9.27757e-05 0.0040024 -0.0037769 0.00855248 -0.0128783 -0.00459523 -0.0152685
internal_weight=713.135 549.626 202.15 347.475 163.51 38.8624 124.647
internal_count=1640 1233 454 779 407 91 316
cat_boundaries=0 1
cat_threshold=1
is_linear=0
shrinkage=0.02


Tree=27
num_leaves=8
num_cat=0
split_feature=25 11 3 3 18 5 24
split_gain=171.346 52.0382 30.5566 24.4719 18.1443 16.2809 13.8945
threshold=0.6830127018922193 31.080000000000002 -0.18903672181055581 1.1905755711861961 207.48000000000002 0.80312463697801928 0.68301270189221941
decision_type=2 2 2 2 2 2 2
left_child=1 6 5 -3 -4 -2 -1
right_child=2 3 4 -5 -6 -7 -8
leaf_value=-0.012566629181125104 0.016585385994519548 -0.0027989630392897982 0.0037519194742102412 0.016482767361130312 0.02717751438499455 -0.0018475069749759189 -0.0040285944226954454
leaf_weight=269.61105790734291 31.189909785985947 56.522977203130722 17.686235517263412 45.431815475225449 83.599201321601868 42.583370715379715 114.96408787369728
leaf_count=685 74 143 39 114 196 98 291
internal_value=-0.000584848 -0.00670672 0.0162564 0.00584873 0.0233357 0.00604566 -0.0100742
internal_weight=661.589 486.53 175.059 101.955 101.285 73.7733 384.575
internal_count=1640 1233 407 257 235 172 976
is_linear=0
shrinkage=0.02


Tree=28
num_leaves=8
num_cat=1
split_feature=1 30 28 21 31 29 39
split_gain=63.0448 38.4417 22.2692 16.9422 11.5686 10.6131 1.84491
threshold=0 9.5675220061544177 3.0823713947058695 102.35000000000001 15.890000000000002 20.830000000000002 603181.65500000014
decision_type=1 2 2 2 2 2 2
left_child=4 2 -2 -3 5 -1 -6
right_child=1 3 -4 -5 6 -7 -8
leaf_value=-0.0070626059905077466 0.012655364787223755 -0.0048540723435098899 -0.00043018318977976465 0.005293318990421376 -0.0086361564899440774 0.0087035445118486526 -0.018499756732820963
leaf_weight=152.65356642007828 205.38260680437088 176.74022912979126 67.32127434015274 101.69066569209099 22.235168099403381 16.9461470246315 40.994823187589645
leaf_count=338 393 383 140 205 50 34 97
internal_value=0.000399357 0.00409653 0.00940897 -0.00110099 -0.00827004 -0.00534592 -0.0155556
internal_weight=783.964 551.135 272.704 278.431 232.83 169.6 63.23
internal_count=1640 1121 533 588 519 372 147
cat_boundaries=0 1
cat_threshold=4
is_linear=0
shrinkage=0.02


Tree=29
num_leaves=8
num_cat=1
split_feature=25 32 1 26 3 18 22
split_gain=87.8088 47.3917 63.6832 37.5264 7.21779 2.90495 1.01769
threshold=0.6830127018922193 15.375000000000002 0 -0.96426143418453092 -0.57818115884673116 22841.095000000005 94.100000000000009
decision_type=2 2 1 2 2 2 2
left_child=1 3 -3 -1 5 -2 -6
right_child=4 2 -4 -5 6 -7 -8
leaf_value=-0.003524022503708799 -0.0084613314286314991 0.011244558935213341 -0.011988493371868579 0.011933339503090008 -0.016679167514440821 0.0020966639576800524 -0.0099679886728600495
leaf_weight=79.584484159946442 24.887144207954407 70.996177107095718 130.8106923699379 269.0562909245491 89.913069218397141 13.869530886411665 33.536916255950928
leaf_count=180 58 158 296 599 233 33 83
internal_value=8.98587e-05 0.00392021 -0.00373584 0.00837638 -0.012737 -0.00452019 -0.0151237
internal_weight=712.654 550.448 201.807 348.641 162.207 38.7567 123.45
internal_count=1640 1233 454 779 407 91 316
cat_boundaries=0 1
cat_threshold=1
is_linear=0
shrinkage=0.02


Tree=30
num_leaves=8
num_cat=0
split_feature=26 8 26 3 5 4 32
split_gain=129.362 50.6508 55.8552 33.0364 17.1445 14.5366 10.0116
threshold=1.1119805427578882 57.068451933202944 -0.96426143418453092 -0.26033257555861106 0.8076339525317825 -0.57296554053160487 21.590000000000003
decision_type=2 2 2 2 2 2 2
left_child=1 2 -1 4 -2 -3 -5
right_child=3 5 -4 6 -6 -7 -8
leaf_value=0.0051820598279470444 0.015268793307328417 0.031714257520509929 -0.010712280681661411 0.025742061633570523 -0.0091901487546261502 0.0040838968911265658 0.0091536513649137473
leaf_weight=114.75442335009575 17.868049919605255 14.928858846426012 359.75499221682549 78.369380354881287 24.914132177829742 16.82886153459549 24.003638863563538
leaf_count=276 42 38 927 184 57 41 52
internal_value=-0.000372643 -0.00516738 -0.00684182 0.0161253 0.00102756 0.0184782 0.0221983
internal_weight=651.422 506.267 474.509 145.155 42.7822 31.7577 102.373
internal_count=1617 1282 1203 335 99 79 236
is_linear=0
shrinkage=0.02


Tree=31
num_leaves=8
num_cat=2
split_feature=1 24 26 33 20 0 6
split_gain=77.5447 48.3818 23.2958 19.9312 19.1962 15.9427 7.86367
threshold=0 -0.24999999999999994 -0.66842971407853768 141439.50000000003 18.775000000000002 1 0.78748725343693782
decision_type=1 2 2 2 2 9 2
left_child=1 4 6 -4 -1 -3 -2
right_child=2 5 3 -5 -6 -7 -8
leaf_value=0.0036703157502414054 0.0075065105950637935 0.0085195398841477633 -0.0081665748774796595 0.0080338737146583225 0.020919702102724869 -0.0041972876951216218 -0.0029998157686166611
leaf_weight=36.732892096042633 71.838564306497574 50.300911039113998 335.47973883152008 31.17853969335556 110.06193092465401 95.226563304662704 43.32157826423645
leaf_count=74 145 99 744 61 196 205 93
internal_value=0.000651932 0.00875631 -0.00426025 -0.00672574 0.0167779 0.00047933 0.00348509
internal_weight=774.141 292.322 481.818 366.658 146.795 145.527 115.16
internal_count=1617 574 1043 805 270 304 238
cat_boundaries=0 1 2
cat_threshold=2 27277504
is_linear=0
shrinkage=0.02


Tree=32
num_leaves=7
num_cat=0
split_feature=25 8 39 5 26 21
split_gain=69.0679 40.0994 34.0931 31.6714 10.2232 7.11749
threshold=0.6830127018922193 -4.3658714646779613 777636.25000000012 1.0860732276210638 -1.557733029773783 54.800000000000004
decision_type=2 2 2 2 2 2
left_child=1 2 -1 -3 -2 -6
right_child=4 3 -4 -5 5 -7
leaf_value=0.020277684908283505 0.0035169045138399874 -0.006012704868328984 0.002304010623858677 0.0056160070084452394 -0.015583264690674279 -0.0035798482189669258
leaf_weight=80.806875616312027 13.968111634254454 201.23757657408714 90.192646056413651 171.48864087462425 117.66126978397369 28.111053913831711
leaf_count=186 33 441 201 388 296 72
internal_value=-0.000357916 0.00303055 0.0109916 -0.000634314 -0.0118483 -0.013416
internal_weight=703.466 543.726 171 372.726 159.74 145.772
internal_count=1617 1216 387 829 401 368
is_linear=0
shrinkage=0.02


Tree=33
num_leaves=7
num_cat=2
split_feature=25 1 8 33 35 1
split_gain=124.26 78.1848 54.9224 22.2891 17.5239 17.4483
threshold=0.6830127018922193 0 9.0491650319112011 25836.500000000004 35.605000000000011 1
decision_type=2 1 2 2 2 1
left_child=1 2 -1 -3 5 -2
right_child=4 3 -4 -5 -6 -7
leaf_value=-0.0038278436163885392 0.021097239367215408 0.0047338861959751082 0.020333376878827445 -0.012878525227030889 0.030902337719379509 0.0063462667800211472
leaf_weight=89.516237109899521 48.165910661220551 29.931129932403564 61.682278782129288 294.57440492510796 20.716199427843094 105.83101370930672
leaf_count=234 112 72 156 754 49 240
internal_value=-0.000366401 -0.00568075 0.00610036 -0.0112044 0.0139473 0.0112354
internal_weight=650.417 475.704 151.199 324.506 174.713 153.997
internal_count=1617 1216 390 826 401 352
cat_boundaries=0 1 2
cat_threshold=4 1
is_linear=0
shrinkage=0.02


Tree=34
num_leaves=8
num_cat=2
split_feature=1 20 3 22 1 36 22
split_gain=74.804 43.7107 23.7971 23.7803 16.556 13.653 10.6612
threshold=0 18.775000000000002 0.025242189899255311 68.145000000000024 1 591030.50000000012 93.515000000000015
decision_type=1 2 2 2 1 2 2
left_child=1 6 4 -3 -2 -4 -1
right_child=2 3 5 -5 -6 -7 -8
leaf_value=-0.0057782350180236473 0.0038121715222773946 -0.0050379100322437975 -0.0055375689554759923 0.017161114292447537 -0.0057593382192577345 -0.017012735335586449 0.0068752646667919557
leaf_weight=72.106640547513962 157.54617828130722 20.239757806062698 128.71174117922783 161.08829399943352 129.81904119253159 64.980055600404739 39.252878725528717
leaf_count=156 322 44 282 296 286 153 78
internal_value=0.00064176 0.00859267 -0.00419063 0.0146008 -0.00048718 -0.00957291 -0.00118721
internal_weight=773.745 292.688 481.057 181.328 287.365 193.692 111.36
internal_count=1617 574 1043 340 608 435 234
cat_boundaries=0 1 2
cat_threshold=2 1
is_linear=0
shrinkage=0.02


Tree=35
num_leaves=7
num_cat=0
split_feature=25 8 39 33 12 23
split_gain=66.9188 38.7431 32.3521 26.4543 10.1897 5.35445
threshold=0.6830127018922193 -4.3658714646779613 777636.25000000012 124309.00000000001 10.515000000000002 -21.974999999999998
decision_type=2 2 2 2 2 2
left_child=1 2 -1 -3 -2 -6
right_child=4 3 -4 -5 5 -7
leaf_value=0.019773460218375269 0.0037219124553161467 0.0017418770073221812 0.0022933071430135741 -0.012341895439024433 -0.0022599318389440702 -0.014751439180948336
leaf_weight=81.426131665706635 13.761321067810057 310.37089946866035 90.207479685544968 62.246504962444305 18.439179420471191 126.36290779709816
leaf_count=186 34 697 201 132 46 321
internal_value=-0.000352994 0.00296983 0.010776 -0.000637482 -0.0117154 -0.0132813
internal_weight=702.814 544.251 171.634 372.617 158.563 144.802
internal_count=1617 1216 387 829 401 367
is_linear=0
shrinkage=0.02


Tree=36
num_leaves=8
num_cat=0
split_feature=26 29 39 3 32 5 32
split_gain=119.619 42.2686 48.5689 31.0865 23.9069 16.4371 9.35512
threshold=1.1119805427578882 5.7050000000000001 1126516.5950000002 -0.26033257555861106 28.860000000000003 0.8076339525317825 21.590000000000003
decision_type=2 2 2 2 2 2 2
left_child=1 2 -1 5 -3 -2 -5
right_child=3 4 -4 6 -6 -7 -8
leaf_value=-0.011082528860225932 0.01462392117908198 0.00020741595420184077 0.0081237250949746913 0.024595439133334451 0.021448502197344337 -0.0092436191681606449 0.0086615863781054434
leaf_weight=332.95838069915771 18.093521684408188 82.031064361333847 60.373427152633667 79.62784618139267 27.068552315235138 24.966992497444153 24.231128185987473
leaf_count=860 42 208 146 184 68 57 52
internal_value=-0.000360982 -0.00502462 -0.00808304 0.0153737 0.00585876 0.000767268 0.0212063
internal_weight=649.351 502.431 393.332 146.919 109.1 43.0605 103.859
internal_count=1617 1282 1006 335 276 99 236
is_linear=0
shrinkage=0.02


Tree=37
num_leaves=8
num_cat=2
split_feature=1 24 6 18 20 1 21
split_gain=72.028 45.7241 21.7585 21.8448 17.8661 16.5606 14.1054
threshold=0 -0.24999999999999994 0.83176119642641388 26.765000000000004 16.180000000000003 1 104.25000000000001
decision_type=1 2 2 2 2 1 2
left_child=1 4 5 -4 -1 -2 -3
right_child=2 6 3 -5 -6 -7 -8
leaf_value=-0.0014611438119718054 0.0086390679513334828 -0.0029292494224499679 0.010554423745756934 -0.0086216402897246486 0.018821743202479282 -0.0040804139265993942 0.011618506831724017
leaf_weight=18.675432145595551 74.765679091215134 113.07159534096718 23.682593554258347 296.91415616869926 128.69163280725479 84.888305127620697 32.63624969124794
leaf_count=39 149 241 47 660 231 187 63
internal_value=0.000628847 0.00842153 -0.00412114 -0.00711745 0.0161993 0.00184743 0.000374713
internal_weight=773.326 293.075 480.251 320.597 147.367 159.654 145.708
internal_count=1617 574 1043 707 270 336 304
cat_boundaries=0 1 2
cat_threshold=2 1
is_linear=0
shrinkage=0.02


Tree=38
num_leaves=7
num_cat=0
split_feature=25 3 37 33 22 22
split_gain=64.8599 43.0969 32.5453 8.80022 9.9194 0.708585
threshold=0.6830127018922193 1.7495155660452613 16.225000000000005 28293.500000000004 96.14500000000001 94.805000000000021
decision_type=2 2 2 2 2 2
left_child=1 2 -1 -2 -5 -3
right_child=3 5 -4 4 -6 -7
leaf_value=0.0021084091178436544 0 -0.016425828660292654 0.0147707953076038 -0.015698879855866928 0 -0.0083735713797585942
leaf_weight=389.10794466733932 22.618488132953644 31.719719409942627 101.87333887815475 115.14169934391975 19.6263307929039 22.049279153347015
leaf_count=862 54 71 234 298 49 49
internal_value=-0.000344301 0.00291478 0.00480527 -0.0115825 -0.0134936 -0.0137218
internal_weight=702.137 544.75 490.981 157.387 134.768 53.769
internal_count=1617 1216 1096 401 347 120
is_linear=0
shrinkage=0.02


Tree=39
num_leaves=8
num_cat=1
split_feature=25 1 3 3 35 33 13
split_gain=115.171 74.6548 53.5155 21.5945 22.8919 21.4976 13.1303
threshold=0.6830127018922193 0 1.0370159029586754 -0.33972069979229896 17.765000000000004 25836.500000000004 29.810000000000006
decision_type=2 1 2 2 2 2 2
left_child=1 2 -1 4 -2 -3 -5
right_child=3 5 -4 6 -6 -7 -8
leaf_value=0 0.018629500736596659 0.0046109210378290381 0.029711873197995491 0.02432812126434912 -0.0054623592126028476 -0.012668251063634752 0.0095309321627771535
leaf_weight=123.34328329563141 23.163595408201218 30.04126825928688 28.372606545686722 65.958497405052185 39.724702745676041 289.96482974290848 47.703125238418579
leaf_count=321 55 72 69 153 90 754 103
internal_value=-0.00035588 -0.00552921 0.00593065 0.0133178 0.00355796 -0.0109965 0.0184765
internal_weight=648.272 471.722 151.716 176.55 62.8883 320.006 113.662
internal_count=1617 1216 390 401 145 826 256
cat_boundaries=0 1
cat_threshold=4
is_linear=0
shrinkage=0.02


Tree=40
num_leaves=8
num_cat=2
split_feature=29 0 23 0 36 33 21
split_gain=36.6247 25.8621 18.6652 18.5338 9.63157 7.80436 7.37011
threshold=1.8950000000000007 0 -29.824999999999996 1 751281.2350000001 124309.00000000001 198.05000000000004
decision_type=2 9 2 9 2 2 2
left_child=1 6 -3 4 -2 -5 -1
right_child=3 2 -4 5 -6 -7 -8
leaf_value=-0.0054906676721290975 0.0045913063909885773 0.01898629988764176 0.0058611941075056807 -0.0081005149496647926 -0.0062609467597337385 0.0029001474085862452 0.0068512232710926328
leaf_weight=88.460171401500702 129.19716104865074 58.197841614484787 182.26597914099693 224.80243024230003 41.11814096570015 26.655689984560013 22.188827604055405
leaf_count=190 266 106 365 502 91 54 43
internal_value=0.000619813 0.00538635 0.00884465 -0.00333127 0.0017684 -0.00662007 -0.00261693
internal_weight=772.886 351.113 240.464 421.773 170.315 251.458 110.649
internal_count=1617 704 471 913 357 556 233
cat_boundaries=0 1 2
cat_threshold=68420914 826669
is_linear=0
shrinkage=0.02


Tree=41
num_leaves=7
num_cat=0
split_feature=26 5 33 19 8 22
split_gain=62.2461 35.3396 27.203 22.8556 17.8354 6.7251
threshold=1.1077113911118002 1.0860732276210638 124309.00000000001 37.035000000000004 -26.677515595334956 96.14500000000001
decision_type=2 2 2 2 2 2
left_child=1 3 -3 -1 -2 -6
right_child=4 2 -4 -5 5 -7
leaf_value=-0.0027938325417444431 0.007222870744861081 0.011883147515846113 -0.0078337637505391453 0.017205494886526267 -0.01596394575679861 -0.0031859715840218982
leaf_weight=308.78504520654678 16.076176583766937 187.23447549343109 30.783967614173889 22.605086356401443 113.06288751959801 22.956416457891464
leaf_count=689 40 422 67 51 291 57
internal_value=-0.000339537 0.0027873 0.00900779 -0.00130459 -0.011589 -0.0139572
internal_weight=701.504 549.409 218.018 331.39 152.095 136.019
internal_count=1617 1229 489 740 388 348
is_linear=0
shrinkage=0.02


Tree=42
num_leaves=7
num_cat=0
split_feature=26 8 26 35 8 6
split_gain=111.052 45.9375 51.4905 22.2985 19.1597 10.1891
threshold=1.1119805427578882 57.068451933202944 -0.96426143418453092 35.605000000000011 -10.118460657136684 1.9632679201675025
decision_type=2 2 2 2 2 2
left_child=1 2 -1 4 -2 -3
right_child=3 5 -4 -5 -6 -7
leaf_value=0.0049406376889071044 -0.0065417830968222922 0.0015855242474068843 -0.010332296835475553 0.030361488579991644 0.014043337230611167 0.025541462689151927
leaf_weight=115.407923579216 20.019380927085876 12.242248713970183 350.9572194814682 28.447516471147537 99.911400109529495 20.135546028614044
leaf_count=276 47 30 927 66 222 49
internal_value=-0.000350121 -0.0048904 -0.00652651 0.0147067 0.0104742 0.0173937
internal_weight=647.121 498.743 466.365 148.378 119.931 32.3778
internal_count=1617 1282 1203 335 269 79
is_linear=0
shrinkage=0.02


Tree=43
num_leaves=8
num_cat=1
split_feature=29 8 23 0 4 4 5
split_gain=35.1447 28.8225 20.0214 18.0377 9.57923 8.63382 6.54925
threshold=1.8950000000000007 -4.3658714646779613 -29.824999999999996 0 -0.39564633078408579 1.2363713316042 1.3868579120110611
decision_type=2 2 2 9 2 2 2
left_child=1 5 -3 4 -2 -1 -5
right_child=3 2 -4 6 -6 -7 -8
leaf_value=-0.0048540775357158944 0.0094851495163825201 0.0192447693336989 0.0056992130205592104 -0.0045044563694391542 -0.001499253875653584 0.0093229821940141646 -0.012419828268432347
leaf_weight=103.09218966960907 53.638077348470688 60.095107287168503 169.95751908421516 244.59736767411232 70.035247057676315 18.272139608860016 52.84135714173317
leaf_count=222 107 108 338 533 150 36 123
internal_value=0.000609052 0.00527394 0.00941609 -0.00326668 0.00302002 -0.00252203 -0.00582315
internal_weight=772.529 351.417 230.053 421.112 123.673 121.364 297.439
internal_count=1617 704 446 913 257 258 656
cat_boundaries=0 1
cat_threshold=300325
is_linear=0
shrinkage=0.02


Tree=44
num_leaves=7
num_cat=0
split_feature=25 3 37 33 5 28
split_gain=61.2404 41.5159 31.1875 8.44841 5.27806 0.556795
threshold=0.6830127018922193 1.7495155660452613 16.225000000000005 28293.500000000004 1.3302429138353711 5.5689795288503552
decision_type=2 2 2 2 2 2
left_child=1 2 -1 -2 -5 -3
right_child=3 5 -4 4 -6 -7
leaf_value=0.0020136913066205776 0 -0.0155216754337125 0.014376835357385999 -0.014501232177840741 0 -0.0072705014228643576
leaf_weight=389.76019656658173 22.62593087553978 37.396563977003098 102.51706567406654 120.39101767539978 12.170176953077315 15.95098179578781
leaf_count=862 54 80 234 315 32 40
internal_value=-0.0003336 0.00281122 0.00465631 -0.0113492 -0.0132505 -0.0135871
internal_weight=700.812 545.625 492.277 155.187 132.561 53.3475
internal_count=1617 1216 1096 401 347 120
is_linear=0
shrinkage=0.02


Tree=45
num_leaves=8
num_cat=0
split_feature=26 6 26 3 29 23 3
split_gain=144.482 53.5951 56.1364 38.6754 9.73824 7.84234 1.84903
threshold=1.1119805427578882 2.9251598950120701 -0.96426143418453092 -0.39755901860306159 3.3800000000000003 -21.974999999999998 1.8378531202286554
decision_type=2 2 2 2 2 2 2
left_child=1 2 -1 4 -2 -5 -3
right_child=3 6 -4 5 -6 -7 -8
leaf_value=0.0057277562384702527 -0.011735703273234054 0.011921273918042603 -0.010645746456864485 0.0062807085043466151 0.0085834067329609871 0.023809280913924404 0.028333901576496182
leaf_weight=106.59792101383209 17.781142145395279 13.490946829319002 361.12269467115402 14.958491712808607 15.752299487590788 106.9069704413414 12.413326501846312
leaf_count=257 41 34 960 33 36 242 30
internal_value=0 -0.00528753 -0.00688428 0.0167075 -0.00196351 0.0218746 0.0216117
internal_weight=649.024 493.625 467.721 155.399 33.5334 121.865 25.9043
internal_count=1633 1281 1217 352 77 275 64
is_linear=0
shrinkage=0.02


Tree=46
num_leaves=8
num_cat=2
split_feature=1 33 0 19 31 31 16
split_gain=54.3587 47.693 15.8129 11.9162 10.6687 9.78958 7.64635
threshold=0 43781.000000000007 1 26.015000000000004 11.500000000000002 10.910000000000002 0.51219511949732277
decision_type=1 2 9 2 2 2 2
left_child=1 5 6 -3 -4 -1 -2
right_child=2 3 4 -5 -6 -7 -8
leaf_value=-0.010555503679693131 0.0072005749207528225 0 -0.0020260065882997959 0.014969407691025638 -0.0089045553549154874 0.0015261978638629568 -0.0034836401755727804
leaf_weight=47.382784187793732 61.646339416503906 24.597234845161438 154.7902025282383 152.94643932580948 235.46874073147774 55.171281009912491 43.243483155965805
leaf_count=105 125 50 330 282 532 115 94
internal_value=-0.000317094 0.00668234 -0.00430763 0.0129165 -0.00607124 -0.00405537 0.00248677
internal_weight=775.247 280.098 495.149 177.544 390.259 102.554 104.89
internal_count=1633 552 1081 332 862 220 219
cat_boundaries=0 1 2
cat_threshold=2 1900613
is_linear=0
shrinkage=0.02


Tree=47
num_leaves=7
num_cat=0
split_feature=26 19 14 28 19 34
split_gain=74.7176 39.4371 27.568 22.9135 5.59815 1.55563
threshold=1.1077113911118002 34.850000000000001 8.7550000000000008 15.174516321767108 38.035000000000004 17.420000000000005
decision_type=2 2 2 2 2 2
left_child=1 2 -1 5 -3 -2
right_child=3 4 -4 -5 -6 -7
leaf_value=0.020034269572593136 -0.0063454257202940735 0.010157969274379489 -7.5623844081215165e-05 0.012361381383796277 0.020933661981827351 -0.015092526858055745
leaf_weight=27.085324883460999 17.595725029706955 60.870045214891434 421.19815385341644 12.376384377479551 41.058599948883057 124.33531987667084
leaf_count=62 44 133 943 31 92 328
internal_value=0.00033595 0.00380416 0.0012008 -0.0118571 0.0149141 -0.0141808
internal_weight=704.52 550.212 448.283 154.307 101.929 141.931
internal_count=1633 1230 1005 403 225 372
is_linear=0
shrinkage=0.02


Tree=48
num_leaves=7
num_cat=0
split_feature=26 8 26 35 8 4
split_gain=138.975 47.3534 58.9196 14.6359 18.6623 3.02619
threshold=1.1119805427578882 57.068451933202944 -0.96426143418453092 35.605000000000011 7.1300885540576351 -0.57296554053160487
decision_type=2 2 2 2 2 2
left_child=1 2 -1 4 -2 -3
right_child=3 5 -4 -5 -6 -7
leaf_value=0.0059995404151142696 0.0050036986871595922 0.025766585574544282 -0.010720036570427836 0.028632849825342782 0.020835825679353725 0.0090959495750918672
leaf_weight=108.07573530077934 66.098265081644058 14.278830677270891 355.32118293642998 31.521628320217133 58.550700783729553 13.976348161697386
leaf_count=260 149 35 953 72 131 33
internal_value=0 -0.00521688 -0.0067901 0.0163253 0.012731 0.0189974
internal_weight=647.823 491.652 463.397 156.171 124.649 28.2552
internal_count=1633 1281 1213 352 280 68
is_linear=0
shrinkage=0.02


Tree=49
num_leaves=8
num_cat=0
split_feature=30 8 8 22 36 38 13
split_gain=36.8328 26.9019 16.1224 10.3776 7.80197 6.53865 4.57874
threshold=19.001509999230926 -12.888149919732653 25.456981134375216 96.305000000000021 395567.76000000007 9.7900000000000009 28.800000000000001
decision_type=2 2 2 2 2 2 2
left_child=1 5 -3 4 -2 -1 -5
right_child=3 2 -4 6 -6 -7 -8
leaf_value=-0.0020488384358827937 0.0038764470645785416 0.0065206035698398192 -0.0051233005274456504 0.0074916666686382395 -0.0090674940320440798 -0.013402986358237426 -0.0047622981192945854
leaf_weight=50.661601781845093 18.198338270187378 363.36734783649445 52.197788238525391 26.720421433448792 208.74898144602776 36.12672084569931 18.490477293729782
leaf_count=108 38 721 113 55 474 83 41
internal_value=-0.000308106 0.00288654 0.00501657 -0.00621935 -0.00796108 -0.00708322 0.00227875
internal_weight=774.512 502.353 415.565 272.158 226.947 86.7883 45.2109
internal_count=1633 1025 834 608 512 191 96
is_linear=0
shrinkage=0.02


Tree=50
num_leaves=7
num_cat=0
split_feature=25 8 19 32 12 23
split_gain=71.9147 45.8418 41.548 6.66779 5.28559 4.86599
threshold=0.6830127018922193 -19.119246854986084 34.850000000000001 9.7550000000000008 11.490000000000002 -21.974999999999998
decision_type=2 2 2 2 2 2
left_child=1 3 -3 -1 -2 -6
right_child=4 2 -4 -5 5 -7
leaf_value=0.027079360054810347 0 -0.0014147721141705843 0.013553731831448722 0.012595345497363837 -0.0017771509299367807 -0.014231224284902944
leaf_weight=24.955003559589386 13.754248857498167 388.66194745898247 89.393092602491379 47.943549394607544 16.727966129779816 122.46019703149796
leaf_count=58 34 864 196 109 43 329
internal_value=0.000329204 0.00371641 0.00140821 0.0182778 -0.0116986 -0.0128517
internal_weight=703.896 550.954 478.055 72.8986 152.942 139.188
internal_count=1633 1227 1060 167 406 372
is_linear=0
shrinkage=0.02


Tree=51
num_leaves=8
num_cat=0
split_feature=26 6 26 3 30 23 28
split_gain=134.074 51.2984 53.3434 36.4359 15.0239 7.48855 2.29375
threshold=1.1119805427578882 2.9251598950120701 -0.96426143418453092 -0.39755901860306159 25.110601422427319 -21.974999999999998 8.2858932274076889
decision_type=2 2 2 2 2 2 2
left_child=1 2 -1 4 -2 -5 -3
right_child=3 6 -4 5 -6 -7 -8
leaf_value=0.0054986562522175396 -0.013334604140816953 0.010238029727425968 -0.010450796168966291 0.0058342164120192318 0.012073291155027569 0.022831401463236034 0.027114511939340225
leaf_weight=107.21204647421837 19.240009784698486 11.932239204645159 356.39685261249542 15.079208284616469 14.405426681041716 108.13955861330032 14.206493645906447
leaf_count=257 44 30 960 33 33 242 34
internal_value=0 -0.0051509 -0.00673315 0.015983 -0.00210853 0.0209576 0.0210411
internal_weight=646.612 489.748 463.609 156.864 33.6454 123.219 26.1387
internal_count=1633 1281 1217 352 77 275 64
is_linear=0
shrinkage=0.02


Tree=52
num_leaves=8
num_cat=2
split_feature=1 20 22 0 32 23 16
split_gain=51.5746 30.9656 16.4079 15.2391 9.84793 8.82453 7.3833
threshold=0 18.775000000000002 81.370000000000019 1 7.7600000000000007 -12.599999999999998 0.51219511949732277
decision_type=1 2 2 9 2 2 2
left_child=1 5 -3 6 -5 -1 -2
right_child=3 2 -4 4 -6 -7 -8
leaf_value=0.0072800111529345082 0.0070946287472211838 0 0.014992645809151248 -0.014901388738096835 -0.0048439431499818011 -0.0052157189893211669 -0.0034060219688891035
leaf_weight=28.860134661197662 61.713174819946289 37.319071710109711 134.04627969861031 44.330592840909958 344.51423108577728 79.971599936485291 43.151963174343109
leaf_count=57 125 78 245 105 757 172 94
internal_value=-0.000300297 0.00651194 0.0117701 -0.00419732 -0.00593468 -0.00174028 0.00246637
internal_weight=773.907 280.197 171.365 493.71 388.845 108.832 104.865
internal_count=1633 552 323 1081 862 229 219
cat_boundaries=0 1 2
cat_threshold=2 1900613
is_linear=0
shrinkage=0.02


Tree=53
num_leaves=8
num_cat=0
split_feature=25 3 33 3 5 6 5
split_gain=69.5849 39.1737 29.0488 5.28407 4.86326 2.4617 0.252511
threshold=0.6830127018922193 1.5049584849845605 73132.000000000015 -0.054737371409554654 0.78476479983228387 2.5913280228953619 1.3302429138353711
decision_type=2 2 2 2 2 2 2
left_child=1 2 -1 4 -2 -3 -5
right_child=3 5 -4 6 -6 -7 -8
leaf_value=0.00839907064333573 -0.013768428945334045 -0.007059752737609633 -0.0031024447794598732 -0.016550933730349115 -0.0030271663343002463 -0.016772468113433473 -0.0078344434039911773
leaf_weight=369.12881645560265 28.313196927309036 52.022694498300552 112.43630000948906 62.480474412441254 48.921733647584915 18.020830631256104 11.960474640130995
leaf_count=824 73 113 245 179 121 45 33
internal_value=0.000321602 0.00363961 0.00569128 -0.0115704 -0.00733911 -0.0100937 -0.0155229
internal_weight=703.285 551.609 481.565 151.676 77.2349 70.0435 74.4409
internal_count=1633 1227 1069 406 194 158 212
is_linear=0
shrinkage=0.02


Tree=54
num_leaves=8
num_cat=1
split_feature=25 6 1 3 5 28 3
split_gain=126.172 57.0515 27.6667 22.3312 13.7444 7.30215 1.57247
threshold=0.6830127018922193 2.9251598950120701 0 -0.21876022929071828 0.78476479983228387 10.455452536645113 1.8378531202286554
decision_type=2 2 1 2 2 2 2
left_child=1 2 -1 4 -2 -5 -3
right_child=3 6 -4 5 -6 -7 -8
leaf_value=0.00045299554420256337 0.015523266165067369 0.012440169046621864 -0.010509895894090921 0.022350811324155676 -0.0014460568619651067 0.0068873939628342493 0.028707879914421995
leaf_weight=128.08147338032722 29.320708215236664 13.125524729490282 309.37800276279449 87.880916982889175 45.781114488840103 19.090358138084412 12.591943949460982
leaf_count=333 66 33 831 196 104 40 30
internal_value=0 -0.00553887 -0.00728992 0.0140231 0.0052801 0.01986 0.0222628
internal_weight=645.25 463.177 437.459 182.073 75.1018 106.971 25.7175
internal_count=1633 1227 1164 406 170 236 63
cat_boundaries=0 1
cat_threshold=4
is_linear=0
shrinkage=0.02


Tree=55
num_leaves=8
num_cat=2
split_feature=1 33 0 26 30 5 31
split_gain=50.0135 44.2782 14.8654 12.2546 10.016 9.72939 9.52929
threshold=0 43781.000000000007 1 -0.66842971407853768 2.2541927150076835 1.1528674322813408 10.910000000000002
decision_type=1 2 9 2 2 2 2
left_child=1 6 4 -4 -2 -3 -1
right_child=2 5 3 -5 -6 -7 -8
leaf_value=-0.010377948408779125 0.015786155182732436 0.014298234542468325 0.00046452690915627261 -0.0079116757210056978 -6.9821144396926675e-05 0.00047992663380504993 0.0015564020711377705
leaf_weight=47.192707389593124 17.145294725894928 152.55827814340591 87.710860908031464 300.32068806886673 87.735302448272705 25.380009680986404 55.101716369390488
leaf_count=105 32 280 186 676 187 52 115
internal_value=-0.000287456 0.00641812 -0.00413048 -0.00585001 0.00244664 0.0124101 -0.00394696
internal_weight=773.145 280.233 492.912 388.032 104.881 177.938 102.294
internal_count=1633 552 1081 862 219 332 220
cat_boundaries=0 1 2
cat_threshold=2 1900613
is_linear=0
shrinkage=0.02


Tree=56
num_leaves=7
num_cat=0
split_feature=25 8 3 32 22 8
split_gain=67.3461 43.5097 28.5953 6.35725 5.25842 4.56163
threshold=0.6830127018922193 -19.119246854986084 1.7495155660452613 9.7550000000000008 96.865000000000023 -13.278919089978173
decision_type=2 2 2 2 2 2
left_child=1 3 -3 -1 5 -2
right_child=4 2 -4 -5 -6 -7
leaf_value=0.026218160920876935 -0.0058824504232000132 0.0030979052168899814 -0.011989367135237679 0.012153760392625926 0.00042416238134769031 -0.014899503502478588
leaf_weight=25.236223638057709 39.201867908239365 423.90811738371849 54.842398434877396 48.300326645374298 11.974266767501829 99.264979422092438
leaf_count=58 101 935 125 109 30 275
internal_value=0.000309484 0.00356014 0.00130612 0.0176791 -0.0114486 -0.0125379
internal_weight=702.728 552.287 478.751 73.5366 150.441 138.467
internal_count=1633 1227 1060 167 406 376
is_linear=0
shrinkage=0.02


Tree=57
num_leaves=7
num_cat=0
split_feature=26 6 26 35 8 28
split_gain=124.582 48.1267 51.5942 13.9897 17.2633 2.25064
threshold=1.1119805427578882 2.9251598950120701 -0.96426143418453092 35.605000000000011 7.1300885540576351 8.2858932274076889
decision_type=2 2 2 2 2 2
left_child=1 2 -1 4 -2 -3
right_child=3 5 -4 -5 -6 -7
leaf_value=0.0054263052929941092 0.004444301708397558 0.0096968904327676443 -0.010273621795522823 0.027236177670361489 0.019562885371296947 0.026072576206641451
leaf_weight=107.34895169734955 66.716176807880402 12.084479093551638 352.02270483970642 31.93844598531723 59.431596398353577 14.430478304624556
leaf_count=257 149 30 960 72 131 34
internal_value=0 -0.00501915 -0.00657547 0.0153138 0.0118393 0.0201635
internal_weight=643.973 485.887 459.372 158.086 126.148 26.515
internal_count=1633 1281 1217 352 280 64
is_linear=0
shrinkage=0.02


Tree=58
num_leaves=8
num_cat=2
split_feature=1 24 1 34 20 21 39
split_gain=48.2808 38.3238 13.5529 17.4206 13.0781 12.6837 9.41823
threshold=0 -0.24999999999999994 1 13.900000000000002 16.015000000000004 113.00000000000001 1126516.5950000002
decision_type=1 2 1 2 2 2 2
left_child=1 4 3 -2 -1 -3 -4
right_child=2 5 6 -5 -6 -7 -8
leaf_value=-0.00088179738380829344 0.0042776492423537513 -0.0041742522287908672 -0.0090758185647154422 -0.0058916779928922195 0.016300884588786594 0.0095577945563991278 0.0033984412322856446
leaf_weight=19.297190755605698 128.49231049418449 110.5981228351593 201.76008978486061 136.61544722318649 117.19027301669121 33.206460624933243 25.174908488988876
leaf_count=40 261 238 465 302 210 64 53
internal_value=-0.000277405 0.00630769 -0.00405919 -0.000930251 0.0138217 -0.00084714 -0.00763071
internal_weight=772.335 280.292 492.043 265.108 136.487 143.805 226.935
internal_count=1633 552 1081 563 250 302 518
cat_boundaries=0 1 2
cat_threshold=2 1
is_linear=0
shrinkage=0.02


Tree=59
num_leaves=7
num_cat=0
split_feature=26 19 14 28 10 22
split_gain=66.5302 35.5503 25.8574 21.6677 7.40136 5.34142
threshold=1.1077113911118002 34.850000000000001 8.7550000000000008 15.174516321767108 -10.064390744042344 96.015000000000015
decision_type=2 2 2 2 2 2
left_child=1 2 -1 5 -3 -2
right_child=3 4 -4 -5 -6 -7
leaf_value=0.019166838992256775 -0.015557874744963028 0.0065065864516033068 -0.00019593880479739596 0.012053425339131996 0.018373056371480224 -0.0039442664249048718
leaf_weight=27.450571715831757 114.13560950756073 40.732557088136673 421.82574981451035 12.402874231338499 62.478218764066696 23.065782606601715
leaf_count=62 313 87 943 31 138 59
internal_value=0.000301168 0.00352422 0.00104466 -0.011425 0.0139977 -0.013762
internal_weight=702.091 552.487 449.276 149.604 103.211 137.201
internal_count=1633 1230 1005 403 225 372
is_linear=0
shrinkage=0.02


Tree=60
num_leaves=8
num_cat=1
split_feature=25 6 1 3 35 8 36
split_gain=102.341 57.8364 24.328 21.5787 16.8281 16.291 5.5102
threshold=0.6830127018922193 2.9251598950120701 0 -0.39755901860306159 17.765000000000004 50.402414486921536 823211.46000000008
decision_type=2 2 1 2 2 2 2
left_child=1 2 -1 4 -2 -5 -3
right_child=3 6 -4 5 -6 -7 -8
leaf_value=8.3498984326687439e-05 0.01599957488917168 0.0090477571950743439 -0.010190488345491775 0.018626622028701929 -0.0062295971839674011 -0.0020832863708913356 0.029529363232076365
leaf_weight=129.43094685673714 18.669708102941513 13.922601222991945 302.44926759600639 122.77111738920212 37.551905959844589 15.897016078233717 14.944151908159254
leaf_count=338 43 34 820 271 84 31 35
internal_value=-6.99544e-05 -0.00522337 -0.00710222 0.011992 0.0012764 0.0161855 0.0212013
internal_weight=655.637 460.747 431.88 194.89 56.2216 138.668 28.8668
internal_count=1656 1227 1158 429 127 302 69
cat_boundaries=0 1
cat_threshold=4
is_linear=0
shrinkage=0.02


Tree=61
num_leaves=8
num_cat=1
split_feature=1 29 15 26 5 19 26
split_gain=48.6825 22.8152 18.8135 17.6369 13.1464 9.13982 5.96541
threshold=0 2.4000000000000017 9.6850000000000041 -0.076360076018961554 0.91204410143910708 22.400000000000002 -0.66842971407853768
decision_type=1 2 2 2 2 2 2
left_child=4 3 -3 -2 5 -1 -6
right_child=1 2 -4 -5 6 -7 -8
leaf_value=0.0094584660803965145 0.00072675180438518442 0.0016088178666476014 -0.01196541154217041 0.0099573385438652268 -0.0028494980287554514 -0.0050792325179557906 -0.013831000206479233
leaf_weight=20.137114137411118 139.44236156344414 149.05736094713211 53.645872354507446 212.39244058728218 28.710998296737671 74.325619488954544 105.65955784916878
leaf_count=42 291 312 123 405 63 168 252
internal_value=6.35711e-05 0.00327879 -0.00201659 0.00635204 -0.00764553 -0.00174464 -0.0116341
internal_weight=783.371 554.538 202.703 351.835 228.833 94.4627 134.371
internal_count=1656 1131 435 696 525 210 315
cat_boundaries=0 1
cat_threshold=4
is_linear=0
shrinkage=0.02


Tree=62
num_leaves=7
num_cat=0
split_feature=25 19 14 26 12 14
split_gain=59.5496 34.359 17.6548 8.09868 7.82675 3.59221
threshold=0.6830127018922193 34.615000000000002 8.8733333333333366 -1.557733029773783 13.880000000000001 13.180000000000001
decision_type=2 2 2 2 2 2
left_child=1 2 -1 -2 -3 -5
right_child=3 4 -4 5 -6 -7
leaf_value=0.016314304434063422 0.0031004715444538609 0.016821019781758983 -0.00049533824574321658 -0.0025907079751640977 0.005312522328681033 -0.013388481180713532
leaf_weight=24.552310526371002 13.388790756464003 71.429371207952499 413.7749764919281 17.470064967870712 43.084014117717743 125.9527912735939
leaf_count=55 33 156 923 45 93 351
internal_value=0 0.00308539 0.000493345 -0.0108041 0.0127425 -0.0121957
internal_weight=709.652 552.841 438.327 156.812 114.513 143.423
internal_count=1656 1227 978 429 249 396
is_linear=0
shrinkage=0.02


Tree=63
num_leaves=7
num_cat=0
split_feature=26 6 26 6 35 36
split_gain=99.3317 47.2885 45.9133 16.4622 17.3529 9.06979
threshold=1.1119805427578882 2.9251598950120701 -0.96426143418453092 1.3039935146405683 35.605000000000011 823211.46000000008
decision_type=2 2 2 2 2 2
left_child=1 2 -1 4 -2 -3
right_child=3 5 -4 -5 -6 -7
leaf_value=0.0048475290532882121 0.0056556568590988929 0.0056612358920408983 -0.0099661028210225929 0.025059721911051797 0.023867114229994938 0.028935064043461689
leaf_weight=108.00539642572403 111.65806126594543 15.146926164627077 344.21207734942436 34.928015261888504 25.293297827243805 15.051367759704588
leaf_count=258 243 36 949 79 56 35
internal_value=-7.1685e-05 -0.00474112 -0.00640031 0.0128804 0.00938619 0.0186487
internal_weight=654.295 482.416 452.217 171.879 136.951 30.1983
internal_count=1656 1278 1207 378 299 71
is_linear=0
shrinkage=0.02


Tree=64
num_leaves=8
num_cat=1
split_feature=28 33 34 5 0 13 9
split_gain=31.4711 32.2213 18.4233 10.7626 13.0829 5.91303 5.46326
threshold=2.4984254479134864 67791.000000000015 33.735000000000007 1.2252150902797661 0 23.365000000000006 2.2583333333333324
decision_type=2 2 2 2 9 2 2
left_child=1 2 -1 4 -2 -5 -3
right_child=3 6 -4 5 -6 -7 -8
leaf_value=-0.0003332107504296253 0.0019785539584143519 0.018400204181829718 0.016055325269036684 -0.015287110699849941 -0.0059193082565900937 -0.0035838311019782761 0.0036917168503010356
leaf_weight=285.1758608520031 153.59576490521431 59.893926709890366 28.238768994808197 43.824722796678543 161.81600689888 34.493839502334595 15.622410356998442
leaf_count=601 323 106 52 106 359 78 31
internal_value=6.52196e-05 0.00410231 0.00120414 -0.00389797 -0.00217771 -0.0104747 0.0156602
internal_weight=782.661 388.931 313.415 393.73 315.412 78.3186 75.5163
internal_count=1656 790 653 866 682 184 137
cat_boundaries=0 1
cat_threshold=925369
is_linear=0
shrinkage=0.02


Tree=65
num_leaves=8
num_cat=2
split_feature=32 39 1 32 8 12 0
split_gain=57.6019 42.6966 35.7343 31.085 30.5417 17.8315 7.55968
threshold=13.765000000000002 1063971.4250000003 0 25.985000000000003 -10.325084279556538 9.8600000000000012 1
decision_type=2 2 1 2 2 2 9
left_child=1 4 3 -2 -1 -3 -4
right_child=2 5 6 -5 -6 -7 -8
leaf_value=0.01671540023101447 -0.007088321621829409 0.0073775561575873481 -0.0019300157794424244 0.014979654698110356 0.0036992378214909922 -0.013099558380646836 -0.014350232788921828
leaf_weight=103.84203445911407 56.603453040122986 20.74926882982254 43.576344907283783 43.004069000482559 240.83795285224915 64.199765831232071 135.99512141942978
leaf_count=237 145 47 111 95 531 155 335
internal_value=0 0.00458299 -0.0070499 0.0024481 0.00772328 -0.00792825 -0.0123424
internal_weight=708.808 429.629 279.179 99.6075 344.68 84.949 179.571
internal_count=1656 970 686 240 768 202 446
cat_boundaries=0 1 2
cat_threshold=1 67473922
is_linear=0
shrinkage=0.02


Tree=66
num_leaves=8
num_cat=0
split_feature=26 6 26 3 23 36 5
split_gain=96.0898 45.7305 44.8727 38.1729 17.5658 8.7054 7.86637
threshold=1.1119805427578882 2.9251598950120701 -0.96426143418453092 -0.39755901860306159 -13.159999999999998 823211.46000000008 0.80312463697801928
decision_type=2 2 2 2 2 2 2
left_child=1 2 -1 6 -5 -3 -2
right_child=3 5 -4 4 -6 -7 -8
leaf_value=0.0047738465265736484 0.0050972936230880787 0.0055313714731559972 -0.0098716094581116302 0.0029477621006996232 0.021128560115287926 0.028296633976308251 -0.012736442460629455
leaf_weight=108.20799461007118 14.804038137197493 15.193583577871324 341.97642859816551 28.923646599054337 107.41909769177437 15.159510165452955 21.150698840618134
leaf_count=258 33 36 949 61 235 35 49
internal_value=-6.87247e-05 -0.00468114 -0.00632371 0.012644 0.0174424 0.0182567 -0.00524842
internal_weight=652.835 480.538 450.184 172.297 136.343 30.3531 35.9547
internal_count=1656 1278 1207 378 296 71 82
is_linear=0
shrinkage=0.02


Tree=67
num_leaves=8
num_cat=2
split_feature=1 33 0 5 19 33 9
split_gain=46.3594 33.0038 20.0176 12.7225 8.9068 6.24343 4.62614
threshold=0 124309.00000000001 1 0.91204410143910708 22.400000000000002 35669.000000000007 2.8399999999999994
decision_type=1 2 9 2 2 2 2
left_child=3 2 -2 4 -1 -5 -3
right_child=1 6 -4 5 -6 -7 -8
leaf_value=0.0093715048863914421 0.0063317730561288201 0.020486566560861372 -0.0017348050007441876 -0.003997782724945549 -0.0049774258631101985 -0.014199725953926656 0.0060295330070111678
leaf_weight=20.166973769664764 190.0346517264843 43.359634131193161 304.42106959223747 38.639034658670425 74.095723658800125 94.78308293223381 16.421570658683777
leaf_count=42 380 75 644 86 168 229 32
internal_value=6.74342e-05 0.00320124 0.0014509 -0.00747887 -0.00167274 -0.0114218 0.0170009
internal_weight=781.922 554.237 494.456 227.685 94.2627 133.422 59.7812
internal_count=1656 1131 1024 525 210 315 107
cat_boundaries=0 1 2
cat_threshold=4 59250913
is_linear=0
shrinkage=0.02


Tree=68
num_leaves=7
num_cat=1
split_feature=24 8 1 31 14 22
split_gain=44.248 37.6277 26.4124 24.2467 31.945 10.2592
threshold=1.0000000180025095e-35 -44.334382656947717 0 13.105000000000002 8.8733333333333366 92.560000000000016
decision_type=2 2 1 2 2 2
left_child=1 -1 -3 4 -2 -5
right_child=3 2 -4 5 -6 -7
leaf_value=0.022748428322559109 0.019865769183772961 0.001094127998037833 -0.0098915161328054502 0.016062621500643307 -0.0021818006135097935 0.0022373800262588963
leaf_weight=17.198246359825134 28.974435687065125 134.73733004927635 238.25159901380539 87.455596834421158 169.87172362208366 31.531246572732925
leaf_count=40 65 324 584 192 384 67
internal_value=0 -0.00451344 -0.00591176 0.00550992 0.00114685 0.0125792
internal_weight=708.02 390.187 372.989 317.833 198.846 118.987
internal_count=1656 948 908 708 449 259
cat_boundaries=0 1
cat_threshold=1
is_linear=0
shrinkage=0.02


Tree=69
num_leaves=8
num_cat=0
split_feature=25 6 11 3 35 8 28
split_gain=93.038 52.844 23.1779 19.6586 16.1099 15.6464 3.57997
threshold=0.6830127018922193 2.9251598950120701 31.080000000000002 -0.39755901860306159 17.765000000000004 50.402414486921536 7.9137970381950948
decision_type=2 2 2 2 2 2 2
left_child=1 2 -1 4 -2 -5 -3
right_child=3 6 -4 5 -6 -7 -8
leaf_value=-0.0091708427487339293 0.015459277983235023 0.008445681870156773 0.0024632237475262124 0.017716296681905847 -0.0062315669022958778 -0.0024800799674335088 0.026144744221459643
leaf_weight=342.85208815336227 18.854354590177536 12.36074620485306 82.98057559132576 123.88701978325844 37.524291962385178 15.985960155725477 16.931136161088943
leaf_count=940 43 30 218 271 84 31 39
internal_value=-6.93045e-05 -0.00504681 -0.00687946 0.011358 0.00113218 0.0153352 0.0200127
internal_weight=651.376 455.125 425.833 196.252 56.3786 139.873 29.2919
internal_count=1656 1227 1158 429 127 302 69
is_linear=0
shrinkage=0.02


Tree=70
num_leaves=8
num_cat=2
split_feature=1 33 0 33 8 33 30
split_gain=45.0188 31.7973 19.4118 11.2783 9.00264 8.3618 1.35259
threshold=0 124309.00000000001 1 43781.000000000007 36.580659061759896 73132.000000000015 14.174352511200224
decision_type=1 2 9 2 2 2 2
left_child=3 2 -2 4 -1 -5 -3
right_child=1 6 -4 5 -6 -7 -8
leaf_value=-0.004975944657792962 0.0062379015349466787 0.018929730763426866 -0.0017056472238005174 -0.014569000258458481 0.010090343376798957 -0.0034039738022063823 0.0084686370309105807
leaf_weight=75.789855599403381 190.16150084137917 44.034538865089417 304.10033863782883 89.745361834764481 17.714960753917694 43.739537745714188 15.769006311893461
leaf_count=171 380 77 644 221 37 96 30
internal_value=6.81011e-05 0.00315396 0.00143454 -0.00738235 -0.00186532 -0.0110886 0.0166965
internal_weight=781.055 554.065 494.262 226.99 93.5048 133.485 59.8035
internal_count=1656 1131 1024 525 208 317 107
cat_boundaries=0 1 2
cat_threshold=4 59250913
is_linear=0
shrinkage=0.02


Tree=71
num_leaves=7
num_cat=1
split_feature=25 32 1 8 12 23
split_gain=55.1578 40.7364 51.4769 30.631 9.02941 5.84767
threshold=0.6830127018922193 15.375000000000002 0 -19.119246854986084 10.370000000000003 -21.974999999999998
decision_type=2 2 1 2 2 2
left_child=1 3 -3 -1 -2 -6
right_child=4 2 -4 -5 5 -7
leaf_value=0.018325021935285873 0.0047555037207989391 0.0090081124818540588 -0.011757775214096702 0.003881458387726325 -0.00024010449035830899 -0.013442748456947928
leaf_weight=74.189150333404541 12.235779225826262 73.00184029340744 128.56355962157249 277.61107188463211 16.825602442026138 124.69862723350525
leaf_count=166 31 158 303 600 45 353
internal_value=0 0.00293852 -0.00417316 0.00704202 -0.010529 -0.011968
internal_weight=707.126 553.366 201.565 351.8 153.76 141.524
internal_count=1656 1227 461 766 429 398
cat_boundaries=0 1
cat_threshold=1
is_linear=0
shrinkage=0.02


Tree=72
num_leaves=8
num_cat=1
split_feature=25 6 1 3 35 8 36
split_gain=89.7142 51.0705 22.7204 19.056 15.6186 15.0812 4.6947
threshold=0.6830127018922193 2.9251598950120701 0 -0.39755901860306159 17.765000000000004 50.402414486921536 823211.46000000008
decision_type=2 2 1 2 2 2 2
left_child=1 2 -1 4 -2 -5 -3
right_child=3 6 -4 5 -6 -7 -8
leaf_value=0.00013900630873532333 0.015117290643229558 0.0083529350097402387 -0.0098403025945997796 0.017360089364450607 -0.0062061067806466188 -0.00245610677289386 0.027197171648167304
leaf_weight=128.84084928035736 18.969316363334656 14.113556057214739 294.93390908837318 124.32313832640648 37.4874087870121 15.980627894401549 15.324114024639128
leaf_count=338 43 34 820 271 84 31 35
internal_value=-7.24181e-05 -0.00498222 -0.00679639 0.0111227 0.00105952 0.01503 0.0195868
internal_weight=649.973 453.212 423.775 196.76 56.4567 140.304 29.4377
internal_count=1656 1227 1158 429 127 302 69
cat_boundaries=0 1
cat_threshold=4
is_linear=0
shrinkage=0.02


Tree=73
num_leaves=8
num_cat=2
split_feature=1 20 1 8 5 35 26
split_gain=43.8636 19.5523 22.2679 12.8151 12.3003 8.60736 5.74893
threshold=0 21.015000000000004 1 7.1300885540576351 0.91204410143910708 24.855 -0.66842971407853768
decision_type=1 2 1 2 2 2 2
left_child=4 3 -3 -2 5 -1 -6
right_child=1 2 -4 -5 6 -7 -8
leaf_value=-0.0055406702868352597 0.0021116924577839202 0.00084406068238020117 0.012096276902663827 -0.0072939268004365244 -0.0025683439661961923 0.0073128935360844607 -0.013373788314021822
leaf_weight=66.351280629634857 188.00559261441231 137.25919479131699 147.59850957989693 81.049903988838196 28.52665963768959 27.64104038476944 103.82373249530792
leaf_count=151 390 286 276 179 63 59 252
internal_value=7.28462e-05 0.00311668 0.00675292 -0.000717663 -0.00729437 -0.00158294 -0.0111921
internal_weight=780.256 553.913 284.858 269.055 226.343 93.9923 132.35
internal_count=1656 1131 562 569 525 210 315
cat_boundaries=0 1 2
cat_threshold=4 1
is_linear=0
shrinkage=0.02


Tree=74
num_leaves=7
num_cat=0
split_feature=25 8 19 12 12 23
split_gain=53.2876 37.5694 30.7792 10.1871 8.43389 5.7869
threshold=0.6830127018922193 -19.119246854986084 34.615000000000002 26.715000000000007 10.630000000000001 -21.974999999999998
decision_type=2 2 2 2 2 2
left_child=1 3 -3 -1 -2 -6
right_child=4 2 -4 -5 5 -7
leaf_value=0.018463866007590743 0.0041508994608140063 -0.0019773632102354005 0.010411201634456871 0 -0.00015723739522359966 -0.013310833522928507
leaf_weight=66.897961795330048 12.605407655239103 371.95985206961632 99.994148075580597 14.826839923858641 16.766490608453751 123.06945794820786
leaf_count=149 32 831 215 32 45 352
internal_value=0 0.00287456 0.000659193 0.0152274 -0.0104059 -0.0118287
internal_weight=706.12 553.679 471.954 81.7248 152.441 139.836
internal_count=1656 1227 1046 181 429 397
is_linear=0
shrinkage=0.02


Tree=75
num_leaves=8
num_cat=2
split_feature=25 1 8 33 0 39 3
split_gain=118.768 55.7416 43.0315 17.6482 11.4028 13.6515 7.78923
threshold=0.6830127018922193 0 -1.6241280179941695 23037.000000000004 1 844680.7300000001 -0.21061792074716404
decision_type=2 1 2 2 9 2 2
left_child=1 2 -1 -3 6 -6 -2
right_child=4 3 -4 -5 5 -7 -8
leaf_value=-0.0075126023424344672 -0.0063092621093467438 0.0086542925187298933 0.013848456786500096 -0.011544758929959655 0.0050264684001368543 0.020716446790617137 0.0089029514152257957
leaf_weight=64.977746695280075 20.000313073396683 16.424201309680939 83.796896010637283 286.9772410094738 32.313351452350616 104.03900328278542 31.555676758289337
leaf_count=177 44 39 208 804 70 232 66
internal_value=7.38508e-05 -0.00546428 0.00447673 -0.0103691 0.0133705 0.0160377 0.00235916
internal_weight=640.084 452.176 148.775 303.401 187.908 136.352 51.556
internal_count=1640 1228 385 843 412 302 110
cat_boundaries=0 1 2
cat_threshold=4 8738818
is_linear=0
shrinkage=0.02


Tree=76
num_leaves=7
num_cat=1
split_feature=1 33 37 12 33 3
split_gain=45.8172 27.3422 20.123 7.18827 6.95036 6.67206
threshold=0 141439.50000000003 20.315000000000001 35.885000000000005 39831.000000000007 0.74485156575322831
decision_type=1 2 2 2 2 2
left_child=3 2 -2 4 -1 -5
right_child=1 -3 -4 5 -6 -7
leaf_value=-0.0043918309475172194 0.00012929405119098961 0.019805613701799944 0.01088928161435684 0.0046024116249260786 -0.013050889250073805 -0.0098450057495099129
leaf_weight=69.762505382299423 436.86094629764557 34.659921795129776 81.147429704666138 31.331037014722824 99.617309540510178 18.552318900823593
leaf_count=158 916 60 153 66 242 45
internal_value=0 0.00307973 0.0018695 -0.00768451 -0.0096357 -0.000750425
internal_weight=771.931 552.668 518.008 219.263 169.38 49.8834
internal_count=1640 1129 1069 511 400 111
cat_boundaries=0 1
cat_threshold=4
is_linear=0
shrinkage=0.02


Tree=77
num_leaves=7
num_cat=0
split_feature=25 3 5 26 22 3
split_gain=55.7078 40.3682 27.3993 6.95247 4.76299 1.92415
threshold=0.6830127018922193 1.4740515660987616 1.0860732276210638 -1.557733029773783 96.14500000000001 1.7495155660452613
decision_type=2 2 2 2 2 2
left_child=1 2 -1 -2 -5 -3
right_child=3 5 -4 4 -6 -7
leaf_value=0.00099214150964696329 0.0018331877627378677 -0.0032234227411664894 0.010744820706574619 -0.014072526235967376 -0.0023444170903837323 -0.012784428192765538
leaf_weight=294.56192594766617 13.247158169746397 15.306006819009779 190.53066408634186 111.52551466226578 19.204954296350479 56.129320323467255
leaf_count=645 33 35 419 329 50 129
internal_value=-7.87879e-05 0.00278232 0.00487164 -0.0110932 -0.0124862 -0.0110156
internal_weight=700.506 556.528 485.093 143.978 130.73 71.4353
internal_count=1640 1228 1064 412 379 164
is_linear=0
shrinkage=0.02


Tree=78
num_leaves=8
num_cat=1
split_feature=25 8 11 0 39 6 3
split_gain=114.425 51.0462 21.4512 11.0703 13.1388 8.44692 7.57452
threshold=0.6830127018922193 55.460842776002131 31.080000000000002 0 844680.7300000001 2.3347841728794383 -0.21061792074716404
decision_type=2 2 2 9 2 2 2
left_child=1 2 -1 6 -5 -3 -2
right_child=3 5 -4 4 -6 -7 -8
leaf_value=-0.0096196033395710718 -0.0062896874181234989 0.0036553815208303763 0.0018225931808232743 0.0048971342140354769 0.020273869379578247 0.024490216916843669 0.0087077023058482611
leaf_weight=335.22269549965858 19.984952002763748 14.866714268922804 78.896510779857635 32.378865212202072 104.5161529481411 21.081201374530792 31.627163738012314
leaf_count=937 44 37 206 70 232 48 66
internal_value=6.68152e-05 -0.00539652 -0.00741736 0.0130829 0.0157013 0.016784 0.00227216
internal_weight=638.574 450.067 414.119 188.507 136.895 35.9479 51.6121
internal_count=1640 1228 1143 412 302 85 110
cat_boundaries=0 1
cat_threshold=8738818
is_linear=0
shrinkage=0.02


Tree=79
num_leaves=7
num_cat=2
split_feature=1 33 37 19 0 39
split_gain=44.1662 26.5906 19.1726 6.28046 7.26942 1.43164
threshold=0 141439.50000000003 20.315000000000001 33.055000000000007 1 777636.25000000012
decision_type=1 2 2 2 9 2
left_child=3 2 -2 4 -1 -5
right_child=1 -3 -4 5 -6 -7
leaf_value=-0.00095368378472325175 0.00013202745024467444 0.019522221164203754 0.010630896081609383 -0.016102246792256445 -0.0096843775431623407 -0.0059617178152095796
leaf_weight=95.354779779911041 436.7343407869339 34.653525114059448 81.239799290895462 36.738711714744568 71.651085495948792 14.675084143877028
leaf_count=214 916 60 153 92 171 34
internal_value=3.50976e-06 0.00302617 0.00183247 -0.00755687 -0.00545834 -0.0137266
internal_weight=771.047 552.628 517.974 218.42 167.006 51.4138
internal_count=1640 1129 1069 511 385 126
cat_boundaries=0 1 2
cat_threshold=4 87629444
is_linear=0
shrinkage=0.02


Tree=80
num_leaves=8
num_cat=0
split_feature=19 25 3 32 21 22 3
split_gain=56.515 30.749 23.1277 19.2117 9.59888 5.21333 4.52087
threshold=33.705000000000005 0.6830127018922193 1.7495155660452613 13.765000000000002 27.150000000000002 95.785000000000011 0.36197773552358409
decision_type=2 2 2 2 2 2 2
left_child=1 2 -1 4 -2 -3 -5
right_child=3 5 -4 6 -6 -7 -8
leaf_value=0.001614527047333664 0.0076680413459189693 -0.012773117220643728 -0.012318130725967777 0.0032365068564807176 0.01992801497482475 -0.0022140327321625236 -0.011553311825039308
leaf_weight=358.68569061160088 55.135891020298004 116.17052721977234 52.883525520563126 15.865700364112856 61.92209854722023 26.189948886632919 12.692892789840696
leaf_count=790 117 344 123 33 136 67 30
internal_value=-7.91299e-05 -0.00301395 -0.000202446 0.0109068 0.0144632 -0.0109574 -0.00333553
internal_weight=699.546 553.93 411.569 145.617 117.058 142.36 28.5586
internal_count=1640 1324 913 316 253 411 63
is_linear=0
shrinkage=0.02


Tree=81
num_leaves=8
num_cat=1
split_feature=25 1 32 33 22 17 33
split_gain=110.254 53.4452 61.5773 17.3342 15.6225 7.3607 4.90981
threshold=0.6830127018922193 0 15.375000000000002 23037.000000000004 95.360000000000014 785.23500000000013 37068.000000000007
decision_type=2 1 2 2 2 2 2
left_child=1 2 -1 -3 5 -2 -6
right_child=4 3 -4 -5 6 -7 -8
leaf_value=-0.005918067171916226 0.0049810513831963386 0.0086543960329654394 0.019995312867970065 -0.011368103625791959 0.0077176883027869868 0.017672459056704774 -0.0060206583013669183
leaf_weight=90.020001828670502 26.341222852468491 16.423291116952896 58.790192782878876 282.78001925349236 19.279945105314255 125.42593002319336 18.01234695315361
leaf_count=246 55 39 139 804 43 276 38
internal_value=6.23014e-05 -0.00532657 0.00438258 -0.0101857 0.0128067 0.0156282 0.000858807
internal_weight=637.073 448.014 148.81 299.203 189.059 151.767 37.2923
internal_count=1640 1228 385 843 412 331 81
cat_boundaries=0 1
cat_threshold=4
is_linear=0
shrinkage=0.02


Tree=82
num_leaves=8
num_cat=0
split_feature=30 33 31 22 32 19 18
split_gain=27.4081 24.5383 11.3815 10.4036 6.91283 6.24021 1.18817
threshold=19.001509999230926 141439.50000000003 15.045000000000002 96.250000000000014 9.4050000000000029 28.935000000000006 7209.4750000000013
decision_type=2 2 2 2 2 2 2
left_child=1 2 -1 4 -2 -5 -3
right_child=3 6 -4 5 -6 -7 -8
leaf_value=-0.0010502611646073805 -0.012074643977698874 0.010144260953628173 0.0053547494718886833 -0.0016156062622870399 -0.0042930190245592595 0.013190005563580146 0.02195289090344358
leaf_weight=273.66542059183121 68.25204810500145 16.041348546743393 182.01096501946449 29.723138034343719 163.62838661670685 15.258314579725264 21.679652452468872
leaf_count=581 163 30 362 65 372 30 37
internal_value=7.42728e-06 0.0028435 0.00149846 -0.00499505 -0.0067099 0.00354151 0.0179465
internal_weight=770.259 493.397 455.676 276.862 231.88 44.9815 37.721
internal_count=1640 1010 943 630 535 95 67
is_linear=0
shrinkage=0.02


Tree=83
num_leaves=7
num_cat=0
split_feature=19 25 8 33 21 26
split_gain=54.3729 29.8269 25.0316 14.8736 9.09215 6.81081
threshold=33.705000000000005 0.6830127018922193 -3.5679463643141278 88253.000000000015 31.700000000000006 -1.557733029773783
decision_type=2 2 2 2 2 2
left_child=1 2 -1 4 -2 -3
right_child=3 5 -4 -5 -6 -7
leaf_value=0.0067742710200267512 0.00720560435128115 0.0019586144271721657 -0.0036692733299284025 -0.0031930127164931073 0.018836251589015206 -0.01224087489287921
leaf_weight=134.83100923895836 59.188292384147644 13.186626970767973 276.60120087862015 23.920333474874496 62.86777251958847 127.88960784673691
leaf_count=296 126 33 617 52 138 378
internal_value=-7.93036e-05 -0.00296759 -0.000206403 0.0106774 0.0134839 -0.0108349
internal_weight=698.485 552.508 411.432 145.976 122.056 141.076
internal_count=1640 1324 913 316 264 411
is_linear=0
shrinkage=0.02


Tree=84
num_leaves=8
num_cat=1
split_feature=25 8 29 0 37 6 3
split_gain=105.988 48.4787 22.189 10.725 10.9247 7.91279 7.31209
threshold=0.6830127018922193 55.460842776002131 9.4250000000000025 0 7.7250000000000005 2.3347841728794383 -0.21061792074716404
decision_type=2 2 2 9 2 2 2
left_child=1 2 -1 6 -5 -3 -2
right_child=3 5 -4 4 -6 -7 -8
leaf_value=-0.0090014661775224408 -0.0063969985822175017 0.0035527608070999952 0.0048846553850117151 0 0.018048646223918042 0.023716454013005133 0.0083201202695126469
leaf_weight=359.23001140356064 20.036564916372299 14.888147234916685 50.479650378227234 14.437648445367811 123.41001403331757 21.240382343530655 31.754434943199158
leaf_count=1013 44 37 130 33 269 48 66
internal_value=5.42271e-05 -0.00525653 -0.00725087 0.0125165 0.0150738 0.0162917 0.00203592
internal_weight=635.477 445.838 409.71 189.639 137.848 36.1285 51.791
internal_count=1640 1228 1143 412 302 85 110
cat_boundaries=0 1
cat_threshold=8738818
is_linear=0
shrinkage=0.02


Tree=85
num_leaves=8
num_cat=2
split_feature=1 33 33 0 19 23 10
split_gain=42.2528 30.0847 16.075 15.0238 14.3752 11.9633 8.5409
threshold=0 54635.500000000007 141439.50000000003 1 26.015000000000004 -2.7899999999999996 15.144975633466297
decision_type=1 2 2 9 2 2 2
left_child=1 5 3 -2 -3 -1 -4
right_child=2 4 6 -5 -6 -7 -8
leaf_value=0.0055332096263021211 -0.00047608775932919521 -0.0023232359342673006 0.018604282131654503 -0.0078674230112841213 0.0157267387683898 -0.005556091599266887 -0.0011473771725813672
leaf_weight=76.414278924465179 218.75966140627861 19.183854013681412 17.077398657798771 235.72071027755737 112.89558190107346 75.244606912136078 14.134784579277037
leaf_count=155 478 39 30 543 202 163 30
internal_value=1.30218e-05 0.00613296 -0.00355219 -0.00453204 0.0130349 0 0.00982798
internal_weight=769.431 283.738 485.693 454.48 132.079 151.659 31.2122
internal_count=1640 559 1081 1021 241 318 60
cat_boundaries=0 1 2
cat_threshold=2 34447047
is_linear=0
shrinkage=0.02


Tree=86
num_leaves=7
num_cat=0
split_feature=25 3 33 26 21 3
split_gain=50.4639 37.3599 24.2092 6.73921 5.73 1.82866
threshold=0.6830127018922193 1.4740515660987616 73132.000000000015 -1.557733029773783 95.300000000000011 1.7495155660452613
decision_type=2 2 2 2 2 2
left_child=1 2 -1 -2 -5 -3
right_child=3 5 -4 4 -6 -7
leaf_value=0.0071064098526933848 0.001990913664332484 -0.003129852764454869 -0.0032467604164638213 -0.013460811005230989 0.00047001391164152044 -0.012506296375018783
leaf_weight=370.31168749928474 13.17199009656906 15.238375902175902 116.48155120015144 115.54099041223526 11.451172381639479 55.259945958852768
leaf_count=810 33 35 254 345 34 129
internal_value=-7.80806e-05 0.00261233 0.00460546 -0.0107317 -0.0121393 -0.0107597
internal_weight=697.456 557.292 486.793 140.164 126.992 70.4983
internal_count=1640 1228 1064 412 379 164
is_linear=0
shrinkage=0.02


Tree=87
num_leaves=8
num_cat=0
split_feature=25 8 9 22 20 4 33
split_gain=101.961 47.1229 17.3597 14.6668 8.06834 4.86513 4.80007
threshold=0.6830127018922193 55.460842776002131 7.8899999999999961 95.360000000000014 19.615000000000006 -0.6101887603180951 37068.000000000007
decision_type=2 2 2 2 2 2 2
left_child=1 2 -1 4 -2 -3 -5
right_child=3 5 -4 6 -6 -7 -8
leaf_value=-0.0082634331169445414 0.016940022895953449 0.024070511948643875 0.0079627441735411145 0.0074607237660417334 0.0033613032970548134 0.0074976840418128467 -0.0061143619736903562
leaf_weight=381.36972257494926 128.97806289792061 16.158151686191559 26.143861770629883 19.371110796928406 23.724005073308945 20.069269090890884 18.032037883996964
leaf_count=1076 282 38 67 43 49 47 38
internal_value=4.8589e-05 -0.00518531 -0.00716423 0.0122443 0.0149658 0.0160237 0.00068423
internal_weight=633.846 443.741 407.514 190.105 152.702 36.2274 37.4031
internal_count=1640 1228 1143 412 331 85 81
is_linear=0
shrinkage=0.02


Tree=88
num_leaves=7
num_cat=1
split_feature=1 33 37 12 33 10
split_gain=41.2301 24.3651 17.3203 7.11866 6.8796 6.29991
threshold=0 141439.50000000003 20.315000000000001 35.885000000000005 39831.000000000007 4.1893056870353176
decision_type=1 2 2 2 2 2
left_child=3 2 -2 4 -1 -5
right_child=1 -3 -4 5 -6 -7
leaf_value=-0.0040557041187085788 0.00016942283337862635 0.01874281102355772 0.010149024566218393 -0.0063630393561668885 -0.012694743553060477 0.0075461352311090744
leaf_weight=69.143098086118698 435.83808639645576 34.585149675607681 81.300272315740585 29.226561665534973 98.163714915513992 20.20329561829567
leaf_count=158 916 60 153 69 242 42
internal_value=1.82618e-05 0.00293523 0.00179065 -0.00732038 -0.00927363 -0.000411177
internal_weight=768.46 551.724 517.138 216.737 167.307 49.4299
internal_count=1640 1129 1069 511 400 111
cat_boundaries=0 1
cat_threshold=4
is_linear=0
shrinkage=0.02


Tree=89
num_leaves=8
num_cat=1
split_feature=25 3 5 13 1 13 3
split_gain=48.8286 36.2378 25.7547 5.33618 10.6182 2.39311 1.80668
threshold=0.6830127018922193 1.4740515660987616 1.0860732276210638 17.440000000000005 0 51.190000000000005 1.7495155660452613
decision_type=2 2 2 2 1 2 2
left_child=1 2 -1 4 -2 -5 -3
right_child=3 6 -4 5 -6 -7 -8
leaf_value=0.00075617936580736362 0.01076025140545999 -0.0030685015882031355 0.010183793923368392 -0.014814224229054224 -0.0098245427849195585 -0.0028981391120828175 -0.01239775189327998
leaf_weight=295.57332745194435 11.15271919965744 15.201518625020979 191.82525232434273 78.704561054706573 38.125849515199661 10.924879819154738 54.893570303916931
leaf_count=645 30 35 419 238 112 32 129
internal_value=-7.87013e-05 0.00255724 0.00451349 -0.0106149 -0.00473281 -0.0135659 -0.0106545
internal_weight=696.402 557.494 487.399 138.908 49.2786 89.6294 70.0951
internal_count=1640 1228 1064 412 142 270 164
cat_boundaries=0 1
cat_threshold=4
is_linear=0
shrinkage=0.02


Tree=90
num_leaves=8
num_cat=0
split_feature=25 29 3 26 3 34 23
split_gain=81.7813 48.091 20.7107 20.2249 14.0285 10.9579 8.45411
threshold=0.6830127018922193 10.535000000000002 1.1722762146870294 -0.66765543747847111 -0.39755901860306159 12.9 -13.159999999999998
decision_type=2 2 2 2 2 2 2
left_child=1 3 -3 -1 5 -2 -6
right_child=4 2 -4 -5 6 -7 -8
leaf_value=0.00024734070257931057 0.014843479984171168 0.00094159675694699765 0.02384250101631645 -0.010155432815512242 0.0040252638879359967 -0.0027635713133259752 0.017756047909918651
leaf_weight=100.43010312318802 18.862110048532486 37.179677993059158 27.006650179624557 269.78909316658974 25.953041464090347 40.596005618572235 98.820926457643509
leaf_count=265 42 94 62 787 55 89 213
internal_value=0.00019066 -0.00452863 0.0111576 -0.00732042 0.0113012 0.00296054 0.0150875
internal_weight=618.638 434.406 64.1863 370.219 184.232 59.4581 124.774
internal_count=1607 1208 156 1052 399 131 268
is_linear=0
shrinkage=0.02


Tree=91
num_leaves=8
num_cat=1
split_feature=1 33 29 31 32 39 6
split_gain=47.0191 21.204 17.3604 9.41063 13.1958 3.0158 1.77384
threshold=0 124309.00000000001 1.8950000000000007 15.045000000000002 21.590000000000003 603181.65500000014 1.6349835183284334
decision_type=1 2 2 2 2 2 2
left_child=3 2 -2 4 -1 -5 -3
right_child=1 6 -4 5 -6 -7 -8
leaf_value=-0.0077194415072804898 0.0052585912431287705 0.017447186910183089 -0.002374199596250431 -0.0055222341558257126 0.0065623285523259481 -0.016607246880576951 0.0067579645413340071
leaf_weight=123.5560899078846 256.90927255153656 38.036722123622894 217.18084019422531 19.248269587755203 30.208988338708878 49.764242351055145 15.983490318059919
leaf_count=290 512 67 470 46 63 129 30
internal_value=-8.45776e-05 0.00315251 0.00174572 -0.00776259 -0.00480118 -0.013899 0.0148172
internal_weight=750.888 528.11 474.09 222.778 153.765 69.0125 54.0202
internal_count=1607 1079 982 528 353 175 97
cat_boundaries=0 1
cat_threshold=4
is_linear=0
shrinkage=0.02


Tree=92
num_leaves=8
num_cat=0
split_feature=32 33 26 26 39 14 18
split_gain=40.6929 33.718 20.7329 16.1461 15.1168 12.8897 3.22621
threshold=13.765000000000002 28867.000000000004 1.2581000716328095 0.81169352432910968 703433.06500000006 10.408333333333335 574.11500000000012
decision_type=2 2 2 2 2 2 2
left_child=1 5 -3 4 -2 -1 -5
right_child=3 2 -4 6 -6 -7 -8
leaf_value=0.0068327313228764078 -0.008549402256346492 0.0086994659729038876 -0.0074665461906161038 -0.0039149306096915686 0.0048033153679714639 -0.0092559536613518439 -0.013343129487373692
leaf_weight=23.29032963514328 62.141832560300827 286.68303266167641 33.447093039751053 23.267469331622124 69.325217097997665 87.730981707572937 96.847347915172577
leaf_count=51 137 618 96 64 163 206 272
internal_value=-6.52124e-05 0.00364532 0.00694353 -0.00644222 -0.00146686 -0.00573116 -0.0116927
internal_weight=682.733 431.151 320.13 251.582 131.467 111.021 120.115
internal_count=1607 971 714 636 300 257 336
is_linear=0
shrinkage=0.02


Tree=93
num_leaves=8
num_cat=0
split_feature=25 29 3 20 3 35 23
split_gain=78.9598 46.6566 19.9368 16.129 13.6051 11.0187 8.19654
threshold=0.6830127018922193 10.535000000000002 1.1722762146870294 23.020000000000003 -0.39755901860306159 17.765000000000004 -13.159999999999998
decision_type=2 2 2 2 2 2 2
left_child=1 3 -3 -1 5 -2 -6
right_child=4 2 -4 -5 6 -7 -8
leaf_value=-0.0032722933469272247 0.013808786966129659 0.00091964371402447533 0.023369044341296229 -0.011786794145542337 0.0039199402387482696 -0.0033818338697690722 0.017432329392681897
leaf_weight=199.66408154368401 21.369123816490173 37.202622950077057 27.10826364159584 168.58119520545006 25.986746817827225 38.175648599863052 98.986676514148712
leaf_count=552 47 94 62 500 55 84 213
internal_value=0.000182121 -0.00447405 0.0109527 -0.00723982 0.0110819 0.00287322 0.0148073
internal_weight=617.074 432.556 64.3109 368.245 184.518 59.5448 124.973
internal_count=1607 1208 156 1052 399 131 268
is_linear=0
shrinkage=0.02


Tree=94
num_leaves=8
num_cat=2
split_feature=1 30 0 15 31 32 5
split_gain=45.6485 20.6404 21.4654 9.43325 9.24949 12.8024 3.46324
threshold=0 19.001509999230926 1 5.6650000000000009 15.045000000000002 21.590000000000003 1.7940355203490348
decision_type=1 2 9 2 2 2 2
left_child=4 2 -2 -3 5 -1 -6
right_child=1 3 -4 -5 6 -7 -8
leaf_value=-0.0076098332910306847 0.010531166082271408 0.0017056006934162691 0.0010217618218498383 -0.008766656428377902 -0.016709621363149074 0.006450456432464299 -0.0052014640952399906
leaf_weight=123.1411329805851 167.67513260245323 64.161632031202316 228.2342694401741 67.872220128774643 48.734639704227448 30.265330404043198 19.812968969345093
leaf_count=290 321 137 466 155 125 63 50
internal_value=-7.63969e-05 0.00310967 0.00539734 -0.00365356 -0.00765958 -0.00472424 -0.0137668
internal_weight=749.897 527.943 395.909 132.034 221.954 153.406 68.5476
internal_count=1607 1079 787 292 528 353 175
cat_boundaries=0 1 2
cat_threshold=4 178402496
is_linear=0
shrinkage=0.02


Tree=95
num_leaves=7
num_cat=1
split_feature=25 32 1 33 12 22
split_gain=40.01 33.3373 45.6971 24.8945 8.54076 5.22985
threshold=0.6830127018922193 15.375000000000002 0 28867.000000000004 10.245000000000003 94.695000000000007
decision_type=2 2 1 2 2 2
left_child=1 3 -3 -1 -2 -6
right_child=4 2 -4 -5 5 -7
leaf_value=-0.0044722268042235152 0.0049030082892600893 0.0082455340181517497 -0.011873178089424405 0.008531318406753946 -0.014247479922416789 -0.0045217425249005749
leaf_weight=71.488959312438965 12.280462384223936 69.535722404718399 119.5858767926693 287.32509061694145 83.703774526715279 37.843713358044624
leaf_count=154 32 150 286 618 261 106
internal_value=-6.62567e-05 0.0023201 -0.00441478 0.00590239 -0.0098007 -0.0114225
internal_weight=681.764 547.936 189.122 358.814 133.828 121.547
internal_count=1607 1208 436 772 399 367
cat_boundaries=0 1
cat_threshold=1
is_linear=0
shrinkage=0.02


Tree=96
num_leaves=8
num_cat=1
split_feature=26 29 26 0 11 15 11
split_gain=72.9001 34.1106 44.7158 12.0135 10.0071 8.78355 3.56591
threshold=1.1119805427578882 10.535000000000002 -0.66765543747847111 0 29.960000000000004 10.975000000000001 21.225000000000005
decision_type=2 2 2 9 2 2 2
left_child=1 2 -1 5 -3 -2 -5
right_child=3 4 -4 6 -6 -7 -8
leaf_value=0.0028764386727237385 -0.0036130261251425735 0 -0.011098299268713092 0.011439729081024157 0.016075945016862003 0.014034480368307923 0.020392393900619112
leaf_weight=140.40503519773483 35.964979857206345 27.216357439756393 252.74467691779137 54.737016052007675 36.197710335254669 13.883320331573485 54.339009761810303
leaf_count=355 78 66 753 119 87 30 119
internal_value=0.000171138 -0.00387735 -0.00609291 0.0117676 0.00947197 0.0012247 0.0149323
internal_weight=615.488 456.564 393.15 158.924 63.4141 49.8483 109.076
internal_count=1607 1261 1108 346 153 108 238
cat_boundaries=0 1
cat_threshold=25500674
is_linear=0
shrinkage=0.02


Tree=97
num_leaves=7
num_cat=1
split_feature=1 33 30 20 33 9
split_gain=44.4623 20.3123 14.5913 9.10131 9.11086 1.54609
threshold=0 124309.00000000001 17.753970592720457 9.8450000000000024 73132.000000000015 2.3933333333333366
decision_type=1 2 2 2 2 2
left_child=3 2 -2 -1 -5 -3
right_child=1 5 -4 4 -6 -7
leaf_value=0.0029330866278614344 0.0039662905113544301 0.017120841447060425 -0.0036809689690098604 -0.011415201326658036 -0.00085309877143165385 0.0070010625201956337
leaf_weight=26.655692666769028 334.97294595837593 37.09066253900528 138.82621368765831 149.79937139153481 44.734304398298264 16.857457250356674
leaf_count=59 674 65 308 371 98 32
internal_value=-6.55139e-05 0.00307589 0.00169852 -0.00756595 -0.00907066 0.0145007
internal_weight=748.937 527.747 473.799 221.189 194.534 53.9481
internal_count=1607 1079 982 528 469 97
cat_boundaries=0 1
cat_threshold=4
is_linear=0
shrinkage=0.02


Tree=98
num_leaves=7
num_cat=0
split_feature=12 19 3 38 33 15
